{"learner":{"attributes":{"scikit_learn":"{\"_estimator_type\": \"classifier\"}"},"feature_names":[],"feature_types":[],"gradient_booster":{"model":{"gbtree_model_param":{"num_parallel_tree":"1","num_trees":"200"},"iteration_indptr":[0,1,2,3,4,5,6,7,8,9,10,11,12,13,14,15,16,17,18,19,20,21,22,23,24,25,26,27,28,29,30,31,32,33,34,35,36,37,38,39,40,41,42,43,44,45,46,47,48,49,50,51,52,53,54,55,56,57,58,59,60,61,62,63,64,65,66,67,68,69,70,71,72,73,74,75,76,77,78,79,80,81,82,83,84,85,86,87,88,89,90,91,92,93,94,95,96,97,98,99,100,101,102,103,104,105,106,107,108,109,110,111,112,113,114,115,116,117,118,119,120,121,122,123,124,125,126,127,128,129,130,131,132,133,134,135,136,137,138,139,140,141,142,143,144,145,146,147,148,149,150,151,152,153,154,155,156,157,158,159,160,161,162,163,164,165,166,167,168,169,170,171,172,173,174,175,176,177,178,179,180,181,182,183,184,185,186,187,188,189,190,191,192,193,194,195,196,197,198,199,200],"tree_info":[0,0,0,0,0,0,0,0,0,0,0,0,0,0,0,0,0,0,0,0,0,0,0,0,0,0,0,0,0,0,0,0,0,0,0,0,0,0,0,0,0,0,0,0,0,0,0,0,0,0,0,0,0,0,0,0,0,0,0,0,0,0,0,0,0,0,0,0,0,0,0,0,0,0,0,0,0,0,0,0,0,0,0,0,0,0,0,0,0,0,0,0,0,0,0,0,0,0,0,0,0,0,0,0,0,0,0,0,0,0,0,0,0,0,0,0,0,0,0,0,0,0,0,0,0,0,0,0,0,0,0,0,0,0,0,0,0,0,0,0,0,0,0,0,0,0,0,0,0,0,0,0,0,0,0,0,0,0,0,0,0,0,0,0,0,0,0,0,0,0,0,0,0,0,0,0,0,0,0,0,0,0,0,0,0,0,0,0,0,0,0,0,0,0,0,0,0,0,0,0],"trees":[{"base_weights":[-1.0068562E-8,1.6898503E0,-1.4278448E0,1.8856378E0,-6.096584E-1,7.157477E-1,-1.9373646E0,1.9647598E-1,1.0795934E0,1.6076832E-1,-1.175041E0,1.7679119E0,-9.764022E-1,7.2572544E-2,-1.9639765E-1,1.6974914E0,-8.680279E-1,-5.334637E-1,5.051833E-1,-1.2791342E0,1.7775804E-1,1.8161066E0,-1.9234791E-1,3.2840535E-1,-1.2392493E0,1.7313972E-1,-3.689435E-3,4.112773E-2,-1.1433014E0,-6.2531374E-2,9.709339E-3,7.117936E-1,8.533702E-3,5.2075884E-3,-1.3311179E0,1.8766573E-2,6.238525E-4,1.8296918E-1,6.238525E-4,6.238525E-4,-2.1565197E-2,-1.6243479E-1,6.053536E-2,-1.3567908E0,4.112773E-2,6.238525E-4,-1.1900192E-1,-3.689435E-3,7.7143556E-1,-3.8005278E-1,3.927599E-1,-6.644344E-2,-1.3934118E0,-5.056798E-2,3.322005E-2,-1.4682553E0,3.322005E-2,8.082613E-2,5.2777114E-3,-5.321884E-2,1.4077539E-2,8.950511E-4,4.292357E-2,1.8766573E-2,-2.5331948E-2,-1.4311372E-1,6.238525E-4,-1.5331136E0,1.8249692E-2,9.471587E-3,-1.5980473E0,-1.624032E0,6.238525E-4,-1.1782551E-2,-1.646788E-1],"categories":[],"categories_nodes":[],"categories_segments":[],"categories_sizes":[],"default_left":[0,0,0,0,0,0,0,0,0,0,0,0,0,0,0,0,0,0,0,0,0,0,0,0,0,0,0,0,0,0,0,0,0,0,0,0,0,0,0,0,0,0,0,0,0,0,0,0,0,0,0,0,0,0,0,0,0,0,0,0,0,0,0,0,0,0,0,0,0,0,0,0,0,0,0],"id":0,"left_children":[1,3,5,7,9,11,13,-1,15,17,19,21,23,-1,-1,25,27,29,31,33,35,37,39,41,43,-1,-1,-1,45,-1,-1,47,49,-1,51,-1,-1,-1,-1,-1,-1,53,-1,55,-1,-1,-1,-1,57,59,61,63,65,-1,-1,67,-1,-1,-1,-1,-1,-1,-1,-1,-1,-1,-1,69,-1,-1,71,73,-1,-1,-1],"loss_changes":[4.659201E3,4.0964868E2,1.1570088E3,3.0919922E1,3.5405716E1,3.8813245E2,7.437402E1,0E0,1.2937659E2,1.2585254E1,8.692505E0,1.5963715E1,3.3669632E1,0E0,0E0,5.0904846E0,1.5112045E1,1.683238E0,3.3033028E0,3.7065735E0,8.747041E-3,3.0770264E0,6.995863E-2,4.02503E0,1.9922966E1,0E0,0E0,0E0,1.5227127E0,0E0,0E0,1.3130198E0,4.4419017E0,0E0,2.4054794E0,0E0,0E0,0E0,0E0,0E0,0E0,4.388827E0,0E0,1.830841E1,0E0,0E0,0E0,0E0,1.5004921E-1,1.9300475E0,1.6947722E-1,1.068305E0,2.1907883E0,0E0,0E0,1.0160706E1,0E0,0E0,0E0,0E0,0E0,0E0,0E0,0E0,0E0,0E0,0E0,8.6202545E0,0E0,0E0,2.8198853E0,2.6057434E-1,0E0,0E0,0E0],"parents":[2147483647,0,0,1,1,2,2,3,3,4,4,5,5,6,6,8,8,9,9,10,10,11,11,12,12,15,15,16,16,17,17,18,18,19,19,20,20,21,21,22,22,23,23,24,24,28,28,31,31,32,32,34,34,41,41,43,43,48,48,49,49,50,50,51,51,52,52,55,55,67,67,70,70,71,71],"right_children":[2,4,6,8,10,12,14,-1,16,18,20,22,24,-1,-1,26,28,30,32,34,36,38,40,42,44,-1,-1,-1,46,-1,-1,48,50,-1,52,-1,-1,-1,-1,-1,-1,54,-1,56,-1,-1,-1,-1,58,60,62,64,66,-1,-1,68,-1,-1,-1,-1,-1,-1,-1,-1,-1,-1,-1,70,-1,-1,72,74,-1,-1,-1],"split_conditions":[1.2362905E-2,9.976939E-1,5.5496017E-3,3.4819578E-4,3.4595206E-7,9.973716E-1,1.2395316E-3,1.9647598E-1,1.3256483E-3,1.02561856E-7,7.195317E-1,9.977692E-1,3.1548755E-9,7.2572544E-2,-1.9639765E-1,9.904115E-1,1.3618855E-3,2.3081091E-7,7.033417E-8,1.464405E-7,8.47238E-1,4.9678204E-3,5.5646687E-4,1.5023208E-8,1.4545622E-2,1.7313972E-1,-3.689435E-3,4.112773E-2,7.8232505E-4,-6.2531374E-2,9.709339E-3,6.764792E-7,3.998205E-4,5.2075884E-3,7.7773213E-1,1.8766573E-2,6.238525E-4,1.8296918E-1,6.238525E-4,6.238525E-4,-2.1565197E-2,2.2791767E-7,6.053536E-2,2.8119795E-3,4.112773E-2,6.238525E-4,-1.1900192E-1,-3.689435E-3,2.5817806E-2,2.8589461E-6,1.1604778E-3,2.0881127E-4,1.3092135E-1,-5.056798E-2,3.322005E-2,9.962609E-1,3.322005E-2,8.082613E-2,5.2777114E-3,-5.321884E-2,1.4077539E-2,8.950511E-4,4.292357E-2,1.8766573E-2,-2.5331948E-2,-1.4311372E-1,6.238525E-4,4.259136E-8,1.8249692E-2,9.471587E-3,7.368848E-2,4.5188656E-8,6.238525E-4,-1.1782551E-2,-1.646788E-1],"split_indices":[496,0,70,495,486,499,264,0,0,277,13,363,33,0,0,360,279,443,482,455,11,0,32,216,113,0,0,0,21,0,0,76,65,0,1,0,0,0,0,0,0,399,0,31,0,0,0,0,47,314,64,412,209,0,0,498,0,0,0,0,0,0,0,0,0,0,0,376,0,0,296,300,0,0,0],"split_type":[0,0,0,0,0,0,0,0,0,0,0,0,0,0,0,0,0,0,0,0,0,0,0,0,0,0,0,0,0,0,0,0,0,0,0,0,0,0,0,0,0,0,0,0,0,0,0,0,0,0,0,0,0,0,0,0,0,0,0,0,0,0,0,0,0,0,0,0,0,0,0,0,0,0,0],"sum_hessian":[1.911E3,8.743611E2,1.0366389E3,8.0741504E2,6.694606E1,1.9830511E2,8.3833374E2,7.221525E2,8.526251E1,3.1363964E1,3.5582092E1,1.2199928E2,7.6305824E1,5.6952043E0,8.3263855E2,6.570225E1,1.9560263E1,8.580134E0,2.278383E1,3.3545425E1,2.0366678E0,1.19789536E2,2.2097518E0,1.2375934E1,6.392989E1,6.445936E1,1.2428913E0,2.5887294E0,1.6971533E1,7.5618005E0,1.0183339E0,1.3030941E1,9.752889E0,1.2600491E0,3.2285378E1,1.0354917E0,1.0011761E0,1.1878836E2,1.0011761E0,1.0011761E0,1.2085757E0,5.9555836E0,6.4203496E0,6.1341164E1,2.5887294E0,1.0011761E0,1.5970358E1,1.2428913E0,1.178805E1,4.902934E0,4.8499546E0,2.4857826E0,2.9799595E1,3.384012E0,2.5715716E0,5.876959E1,2.5715716E0,1.0027413E1,1.7606372E0,3.6257272E0,1.2772069E0,1.5017642E0,3.3481903E0,1.0354917E0,1.4502909E0,2.8798418E1,1.0011761E0,5.723351E1,1.5360798E0,2.01951E0,5.5214E1,5.4212826E1,1.0011761E0,1.7263216E0,5.2486504E1],"tree_param":{"num_deleted":"0","num_feature":"500","num_nodes":"75","size_leaf_vector":"1"}},{"base_weights":[1.0811571E-3,1.5369195E0,-1.2970155E0,1.7168678E0,-5.6178147E-1,6.5520394E-1,-1.7623447E0,1.7885041E0,9.87158E-1,1.5308623E-1,-1.0885144E0,1.6097361E0,-8.8313526E-1,6.9973715E-2,-1.7875057E0,1.789793E-1,7.906298E-3,1.5336708E0,-8.849633E-1,-5.087578E-1,4.815449E-1,-1.1884358E0,1.7609306E-1,1.6556401E0,-1.9415636E-2,-1.0632905E0,6.278162E-2,-5.923762E-1,-1.7982726E-1,1.5653819E0,-4.462512E-3,3.3610336E-2,-1.11432336E-1,-5.9963596E-1,9.778263E-3,6.768989E-1,1.004916E-2,5.149318E-3,-1.237733E0,1.8633155E-2,5.754837E-4,1.6752718E-1,-4.1138986E-3,-1.1641864E0,4.041512E-2,-8.9343235E-2,3.3188615E-2,1.5961272E-1,4.7862172E-4,-2.998705E-3,-6.2461298E-2,-4.2197234E-3,7.372876E-1,-3.683797E-1,3.8303274E-1,-6.505921E-2,-1.2948298E0,2.4307484E-2,-1.3235066E0,2.4019791E-4,7.7152066E-2,-5.193159E-2,1.4062596E-2,8.833655E-4,4.1851897E-2,1.8590635E-2,-2.501162E-2,-1.3301289E-1,6.181739E-4,-4.6741873E-1,5.4261137E-2,-1.4126484E0,3.017394E-2,6.2548486E-4,-5.0540414E-2,8.1922364E-4,-1.4465386E0,6.0659595E-4,-1.4700687E0,-1.4942478E-1,-2.6085482E-3],"categories":[],"categories_nodes":[],"categories_segments":[],"categories_sizes":[],"default_left":[0,0,0,0,0,0,0,0,0,0,0,0,0,0,0,0,0,0,0,0,0,0,0,0,0,0,0,0,0,0,0,0,0,0,0,0,0,0,0,0,0,0,0,0,0,0,0,0,0,0,0,0,0,0,0,0,0,0,0,0,0,0,0,0,0,0,0,0,0,0,0,0,0,0,0,0,0,0,0,0,0],"id":1,"left_children":[1,3,5,7,9,11,13,15,17,19,21,23,25,-1,27,-1,-1,29,31,33,35,37,39,41,-1,43,-1,45,-1,47,-1,-1,-1,49,-1,51,53,-1,55,-1,-1,-1,-1,57,-1,-1,-1,-1,-1,-1,-1,-1,59,61,63,65,67,69,71,-1,-1,-1,-1,-1,-1,-1,-1,-1,-1,73,-1,75,-1,-1,-1,-1,77,-1,79,-1,-1],"loss_changes":[3.8159207E3,3.4074658E2,9.538556E2,2.4683594E1,3.0573952E1,3.1809875E2,6.456592E1,1.8310547E-1,1.104885E2,1.1435867E1,7.8339424E0,1.4082794E1,3.000328E1,0E0,8.7890625E-2,0E0,0E0,4.5513306E0,1.1515627E1,1.6100912E0,2.9497552E0,3.2900581E0,1.0268778E-2,4.9877014E0,0E0,1.6591537E1,0E0,9.188242E0,0E0,3.557724E0,0E0,0E0,0E0,6.246662E-2,0E0,1.3105297E0,4.198502E0,0E0,1.9789886E0,0E0,0E0,0E0,0E0,1.5033188E1,0E0,0E0,0E0,0E0,0E0,0E0,0E0,0E0,5.2921677E-1,1.8750443E0,1.6020036E-1,1.0448433E0,1.9032516E0,7.3795905E0,1.4214203E1,0E0,0E0,0E0,0E0,0E0,0E0,0E0,0E0,0E0,0E0,3.0373454E-1,0E0,3.3388824E0,0E0,0E0,0E0,0E0,2.3237762E0,0E0,1.8578644E0,0E0,0E0],"parents":[2147483647,0,0,1,1,2,2,3,3,4,4,5,5,6,6,7,7,8,8,9,9,10,10,11,11,12,12,14,14,17,17,18,18,19,19,20,20,21,21,22,22,23,23,25,25,27,27,29,29,33,33,35,35,36,36,38,38,43,43,52,52,53,53,54,54,55,55,56,56,57,57,58,58,69,69,71,71,76,76,78,78],"right_children":[2,4,6,8,10,12,14,16,18,20,22,24,26,-1,28,-1,-1,30,32,34,36,38,40,42,-1,44,-1,46,-1,48,-1,-1,-1,50,-1,52,54,-1,56,-1,-1,-1,-1,58,-1,-1,-1,-1,-1,-1,-1,-1,60,62,64,66,68,70,72,-1,-1,-1,-1,-1,-1,-1,-1,-1,-1,74,-1,76,-1,-1,-1,-1,78,-1,80,-1,-1],"split_conditions":[1.2362905E-2,9.976939E-1,5.619648E-3,3.4819578E-4,3.4595206E-7,9.973716E-1,1.2395316E-3,7.9802686E-4,3.6817496E-3,1.02561856E-7,7.195317E-1,9.9811244E-1,9.962609E-1,6.9973715E-2,1.1472981E-2,1.789793E-1,7.906298E-3,9.961039E-1,1.3618855E-3,6.946096E-8,7.033417E-8,1.464405E-7,3.961973E-1,4.7864625E-3,-1.9415636E-2,1.501283E-2,6.278162E-2,1.6343969E-1,-1.7982726E-1,9.9241555E-1,-4.462512E-3,3.3610336E-2,-1.11432336E-1,5.2663784E-9,9.778263E-3,1.002707E-6,3.998205E-4,5.149318E-3,7.7773213E-1,1.8633155E-2,5.754837E-4,1.6752718E-1,-4.1138986E-3,3.1548755E-9,4.041512E-2,-8.9343235E-2,3.3188615E-2,1.5961272E-1,4.7862172E-4,-2.998705E-3,-6.2461298E-2,-4.2197234E-3,1.1601948E-7,6.0177695E-6,1.1604778E-3,2.0881127E-4,1.3092135E-1,6.7045434E-8,4.8916563E-3,2.4019791E-4,7.7152066E-2,-5.193159E-2,1.4062596E-2,8.833655E-4,4.1851897E-2,1.8590635E-2,-2.501162E-2,-1.3301289E-1,6.181739E-4,7.108888E-10,5.4261137E-2,3.1658573E-8,3.017394E-2,6.2548486E-4,-5.0540414E-2,8.1922364E-4,2.2285176E-8,6.0659595E-4,3.8197245E-2,-1.4942478E-1,-2.6085482E-3],"split_indices":[496,0,71,495,486,499,264,491,0,277,13,364,498,0,69,0,0,363,279,460,482,455,40,32,0,152,0,268,0,193,0,0,0,280,0,179,65,0,1,0,0,0,0,33,0,0,0,0,0,0,0,0,279,330,64,412,209,231,24,0,0,0,0,0,0,0,0,0,0,30,0,299,0,0,0,0,219,0,274,0,0],"split_type":[0,0,0,0,0,0,0,0,0,0,0,0,0,0,0,0,0,0,0,0,0,0,0,0,0,0,0,0,0,0,0,0,0,0,0,0,0,0,0,0,0,0,0,0,0,0,0,0,0,0,0,0,0,0,0,0,0,0,0,0,0,0,0,0,0,0,0,0,0,0,0,0,0,0,0,0,0,0,0,0,0],"sum_hessian":[1.8940226E3,8.6672284E2,1.0272997E3,7.9995215E2,6.677072E1,1.9694896E2,8.303507E2,7.1522784E2,8.472433E1,3.1336006E1,3.543471E1,1.2124987E2,7.569908E1,5.687712E0,8.24663E2,7.1421924E2,1.0085691E0,6.697942E1,1.7744904E1,8.572722E0,2.2763283E1,3.3398136E1,2.0365765E0,1.1904242E2,2.2074568E0,7.028194E1,5.4171467E0,1.23646145E1,8.122984E2,6.5740395E1,1.2390279E0,2.070108E0,1.5674796E1,7.5546436E0,1.0180794E0,1.3014566E1,9.748717E0,1.2600405E0,3.2138096E1,1.0354233E0,1.0011532E0,1.1780615E2,1.2362661E0,6.769409E1,2.5878422E0,9.578283E0,2.7863314E0,6.424698E1,1.4934117E0,1.241677E0,6.3129663E0,1.2416506E0,1.1772915E1,4.900305E0,4.8484125E0,2.4854589E0,2.9652637E1,9.003592E0,5.8690502E1,1.000329E0,1.0772587E1,3.62332E0,1.2769845E0,1.5017639E0,3.3466485E0,1.0354005E0,1.4500582E0,2.865146E1,1.001176E0,5.1240525E0,3.8795385E0,5.687889E1,1.8116107E0,1.0005587E0,4.1234937E0,1.5017273E0,5.5377163E1,1.0010409E0,5.437612E1,5.313824E1,1.2378813E0],"tree_param":{"num_deleted":"0","num_feature":"500","num_nodes":"81","size_leaf_vector":"1"}},{"base_weights":[1.7222881E-3,1.4189429E0,-1.1969646E0,1.5882223E0,-5.210796E-1,6.069842E-1,-1.630035E0,1.6551068E-1,9.110633E-1,1.4346057E-1,-1.0142199E0,1.4904485E0,-8.059194E-1,6.7532875E-2,-1.6543771E0,1.451628E0,-7.6210123E-1,-4.8836264E-1,4.5801798E-1,-1.1110755E0,1.744458E-1,1.5348742E0,-1.9074379E-2,-9.785244E-1,6.0622253E-2,-2.2184868E-1,-1.6579463E-1,1.48318E-1,-4.413238E-3,3.910101E-2,-1.0193868E0,-5.785509E-1,9.846739E-3,6.4227355E-1,1.1511204E-2,5.0917044E-3,-1.1583492E0,4.852775E-4,1.8543286E-2,1.5536778E-1,-4.0686005E-3,-1.0769401E0,3.9937347E-2,1.1989585E-2,-3.4447774E-2,-2.7676614E-3,-1.0565331E-1,-2.9656193E-3,-6.021718E-2,-4.375262E-3,7.015405E-1,-3.5713738E-1,3.7362853E-1,-6.370131E-2,-1.2113999E0,-1.8261796E-2,-1.2414099E0,7.385456E-2,4.2032884E-3,-5.0692476E-2,1.4045427E-2,8.7183074E-4,4.0816754E-2,1.8416684E-2,-2.4696413E-2,-1.2448639E-1,6.1255E-4,-5.44213E-1,5.8246102E-2,-1.3306851E0,2.9714614E-2,-5.8600176E-2,7.807676E-4,5.835333E-2,-1.3904659E0,-1.2083812E-2,1.8770276E-2,-1.4143385E-1,-2.3118295E-3],"categories":[],"categories_nodes":[],"categories_segments":[],"categories_sizes":[],"default_left":[0,0,0,0,0,0,0,0,0,0,0,0,0,0,0,0,0,0,0,0,0,0,0,0,0,0,0,0,0,0,0,0,0,0,0,0,0,0,0,0,0,0,0,0,0,0,0,0,0,0,0,0,0,0,0,0,0,0,0,0,0,0,0,0,0,0,0,0,0,0,0,0,0,0,0,0,0,0,0],"id":2,"left_children":[1,3,5,7,9,11,13,-1,15,17,19,21,23,-1,25,27,29,31,33,35,37,39,-1,41,-1,43,-1,-1,-1,-1,45,47,-1,49,51,-1,53,-1,-1,-1,-1,55,-1,-1,-1,-1,-1,-1,-1,-1,57,59,61,63,65,67,69,-1,-1,-1,-1,-1,-1,-1,-1,-1,-1,71,-1,73,-1,-1,-1,75,77,-1,-1,-1,-1],"loss_changes":[3.1769404E3,2.896975E2,8.014231E2,2.0729736E1,2.6459927E1,2.6594293E2,5.717456E1,0E0,9.546393E1,1.043763E1,7.123451E0,1.2538208E1,2.659031E1,0E0,4.8413086E-1,4.1456604E0,1.2691727E1,1.5516958E0,2.6170368E0,2.951973E0,1.34290755E-2,4.378845E0,0E0,1.50612335E1,0E0,9.8162144E-1,0E0,0E0,0E0,0E0,6.935158E-1,4.8797607E-2,0E0,1.2409267E0,3.9691603E0,0E0,1.652359E0,0E0,0E0,0E0,0E0,1.3139519E1,0E0,0E0,0E0,0E0,0E0,0E0,0E0,0E0,2.199316E-1,1.8220323E0,1.5150237E-1,1.0219347E0,1.6757355E0,9.637772E0,1.3059746E1,0E0,0E0,0E0,0E0,0E0,0E0,0E0,0E0,0E0,0E0,4.1679907E-1,0E0,6.165863E0,0E0,0E0,0E0,5.109337E-1,1.7041702E0,0E0,0E0,0E0,0E0],"parents":[2147483647,0,0,1,1,2,2,3,3,4,4,5,5,6,6,8,8,9,9,10,10,11,11,12,12,14,14,15,15,16,16,17,17,18,18,19,19,20,20,21,21,23,23,25,25,30,30,31,31,33,33,34,34,36,36,41,41,50,50,51,51,52,52,53,53,54,54,55,55,56,56,67,67,69,69,73,73,74,74],"right_children":[2,4,6,8,10,12,14,-1,16,18,20,22,24,-1,26,28,30,32,34,36,38,40,-1,42,-1,44,-1,-1,-1,-1,46,48,-1,50,52,-1,54,-1,-1,-1,-1,56,-1,-1,-1,-1,-1,-1,-1,-1,58,60,62,64,66,68,70,-1,-1,-1,-1,-1,-1,-1,-1,-1,-1,72,-1,74,-1,-1,-1,76,78,-1,-1,-1,-1],"split_conditions":[1.2362905E-2,9.976939E-1,5.619648E-3,3.4819578E-4,3.4595206E-7,9.973716E-1,1.2395316E-3,1.6551068E-1,1.3256483E-3,1.02561856E-7,7.195317E-1,9.977692E-1,9.962609E-1,6.7532875E-2,2.0641018E-2,9.961039E-1,1.3618855E-3,4.403086E-8,7.033417E-8,1.464405E-7,3.2855735E-7,4.7864625E-3,-1.9074379E-2,1.4545622E-2,6.0622253E-2,2.3377135E-3,-1.6579463E-1,1.48318E-1,-4.413238E-3,3.910101E-2,3.0841122E-3,5.2663784E-9,9.846739E-3,1.0587355E-6,3.998205E-4,5.0917044E-3,7.7773213E-1,4.852775E-4,1.8543286E-2,1.5536778E-1,-4.0686005E-3,3.2480125E-9,3.9937347E-2,1.1989585E-2,-3.4447774E-2,-2.7676614E-3,-1.0565331E-1,-2.9656193E-3,-6.021718E-2,-4.375262E-3,2.5817806E-2,1.0508586E-7,1.1604778E-3,2.0881127E-4,1.3092135E-1,6.7045434E-8,4.8916563E-3,7.385456E-2,4.2032884E-3,-5.0692476E-2,1.4045427E-2,8.7183074E-4,4.0816754E-2,1.8416684E-2,-2.4696413E-2,-1.2448639E-1,6.1255E-4,2.4100757E-7,5.8246102E-2,4.5188656E-8,2.9714614E-2,-5.8600176E-2,7.807676E-4,1.4778798E-8,5.0798576E-2,-1.2083812E-2,1.8770276E-2,-1.4143385E-1,-2.3118295E-3],"split_indices":[496,0,71,495,486,499,264,0,0,277,13,363,498,0,457,363,279,474,482,455,499,32,0,113,0,0,0,0,0,0,108,280,0,152,65,0,1,0,0,0,0,32,0,0,0,0,0,0,0,0,47,495,64,412,209,231,24,0,0,0,0,0,0,0,0,0,0,400,0,300,0,0,0,9,307,0,0,0,0],"split_type":[0,0,0,0,0,0,0,0,0,0,0,0,0,0,0,0,0,0,0,0,0,0,0,0,0,0,0,0,0,0,0,0,0,0,0,0,0,0,0,0,0,0,0,0,0,0,0,0,0,0,0,0,0,0,0,0,0,0,0,0,0,0,0,0,0,0,0,0,0,0,0,0,0,0,0,0,0,0,0],"sum_hessian":[1.8501067E3,8.469321E2,1.0031745E3,7.806305E2,6.630162E1,1.9342972E2,8.097448E2,6.9731335E2,8.331717E1,3.12632E1,3.503842E1,1.18675285E2,7.475443E1,5.6663713E0,8.040784E2,6.397291E1,1.934426E1,8.554717E0,2.2708483E1,3.3002075E1,2.0363479E0,1.16467926E2,2.207358E0,6.934865E1,5.4057913E0,3.5680401E0,8.005104E2,6.2733696E1,1.239214E0,2.580659E0,1.6763601E1,7.537399E0,1.0173185E0,1.2971325E1,9.737158E0,1.2600152E0,3.174206E1,1.0010614E0,1.0352864E0,1.1523157E2,1.2363579E0,6.676422E1,2.5844202E0,1.0010852E0,2.566955E0,1.2352897E0,1.5528311E1,1.241558E0,6.2958407E0,1.2396661E0,1.1731658E1,4.8932133E0,4.843945E0,2.4845028E0,2.9257557E1,1.0471356E1,5.629287E1,9.9736E0,1.758058E0,3.6168783E0,1.276335E0,1.501763E0,3.3421817E0,1.0351305E0,1.4493723E0,2.8256382E1,1.0011758E0,6.0847063E0,4.38665E0,5.448258E1,1.8102912E0,5.0842457E0,1.0004607E0,2.2578945E0,5.222468E1,1.2224325E0,1.0354621E0,5.099077E1,1.2339146E0],"tree_param":{"num_deleted":"0","num_feature":"500","num_nodes":"79","size_leaf_vector":"1"}},{"base_weights":[2.5018814E-3,1.3249929E0,-1.117263E0,1.4868953E0,-4.8440275E-1,5.6767726E-1,-1.5258936E0,1.5572241E-1,8.913096E-1,1.356709E-1,-9.494363E-1,1.4000555E0,-7.4229604E-1,6.523674E-2,-1.5498405E0,1.3649974E0,-8.642075E-1,-4.690298E-1,4.3748012E-1,-1.044046E0,1.7281531E-1,1.444228E0,-1.9093081E-2,-9.086418E-1,5.8578696E-2,-4.838415E-1,-1.5600742E-1,1.3908173E0,-4.3645096E-3,3.3192255E-2,-1.0968081E-1,-5.5767E-1,9.755773E-3,6.4020646E-1,4.073242E-2,5.034748E-3,-1.0897824E0,1.841203E-2,4.38395E-4,1.4564447E-1,2.6333265E-3,-1.0047379E0,3.9130338E-2,-7.8837395E-2,3.544893E-2,1.4167373E-1,-9.695526E-4,-2.9328957E-3,-5.7996042E-2,-4.722911E-3,7.072872E-1,-4.004915E-1,4.5648956E-1,-1.119069E0,7.758716E-4,-1.6246773E-2,-1.1605943E0,7.4949615E-2,4.140544E-3,-5.5924963E-2,1.7596146E-2,5.3047318E-2,-4.5971875E-3,-2.558969E-2,-1.17696725E-1,-5.2619946E-1,5.653565E-2,-1.2482332E0,2.9264603E-2,1.8244695E-2,-2.0759601E-2,-5.66778E-2,7.736658E-4,5.7974998E-2,-1.3059634E0,-1.1952636E-2,1.8594306E-2,-1.3283809E-1,-2.4165316E-3],"categories":[],"categories_nodes":[],"categories_segments":[],"categories_sizes":[],"default_left":[0,0,0,0,0,0,0,0,0,0,0,0,0,0,0,0,0,0,0,0,0,0,0,0,0,0,0,0,0,0,0,0,0,0,0,0,0,0,0,0,0,0,0,0,0,0,0,0,0,0,0,0,0,0,0,0,0,0,0,0,0,0,0,0,0,0,0,0,0,0,0,0,0,0,0,0,0,0,0],"id":3,"left_children":[1,3,5,7,9,11,13,-1,15,17,19,21,23,-1,25,27,29,31,33,35,37,39,-1,41,-1,43,-1,45,-1,-1,-1,47,-1,49,51,-1,53,-1,-1,-1,-1,55,-1,-1,-1,-1,-1,-1,-1,-1,57,59,61,63,-1,65,67,-1,-1,-1,-1,-1,-1,69,-1,71,-1,73,-1,-1,-1,-1,-1,75,77,-1,-1,-1,-1],"loss_changes":[2.6766145E3,2.4996643E2,6.8255164E2,1.8084106E1,2.3088818E1,2.2664485E2,5.134143E1,0E0,9.826031E1,9.56204E0,6.524143E0,1.1523499E1,2.3789783E1,0E0,1.0134277E0,3.7261963E0,1.1491245E1,1.4744916E0,2.3632174E0,2.6718102E0,1.4846265E-2,1.7389526E0,0E0,1.3701111E1,0E0,8.400614E0,0E0,3.2055511E0,0E0,0E0,0E0,3.6106586E-2,0E0,1.2983732E0,5.8111043E0,0E0,1.4097557E0,0E0,0E0,0E0,0E0,1.1462601E1,0E0,0E0,0E0,0E0,0E0,0E0,0E0,0E0,2.427597E-1,2.4355292E0,8.331461E-1,2.2411423E0,0E0,9.037803E0,1.1954781E1,0E0,0E0,0E0,0E0,0E0,0E0,8.4226686E-1,0E0,3.92056E-1,0E0,5.536171E0,0E0,0E0,0E0,0E0,0E0,5.006718E-1,1.4352112E0,0E0,0E0,0E0,0E0],"parents":[2147483647,0,0,1,1,2,2,3,3,4,4,5,5,6,6,8,8,9,9,10,10,11,11,12,12,14,14,15,15,16,16,17,17,18,18,19,19,20,20,21,21,23,23,25,25,27,27,31,31,33,33,34,34,36,36,41,41,50,50,51,51,52,52,53,53,55,55,56,56,63,63,65,65,67,67,73,73,74,74],"right_children":[2,4,6,8,10,12,14,-1,16,18,20,22,24,-1,26,28,30,32,34,36,38,40,-1,42,-1,44,-1,46,-1,-1,-1,48,-1,50,52,-1,54,-1,-1,-1,-1,56,-1,-1,-1,-1,-1,-1,-1,-1,58,60,62,64,-1,66,68,-1,-1,-1,-1,-1,-1,70,-1,72,-1,74,-1,-1,-1,-1,-1,76,78,-1,-1,-1,-1],"split_conditions":[1.2362905E-2,9.976939E-1,5.5496017E-3,6.478426E-4,3.4595206E-7,9.973716E-1,1.2395316E-3,1.5572241E-1,3.917845E-3,1.02561856E-7,7.195317E-1,9.9811244E-1,9.962609E-1,6.523674E-2,1.1472981E-2,9.961039E-1,1.950868E-3,4.403086E-8,5.9016294E-8,1.464405E-7,9.980889E-4,3.939944E-3,-1.9093081E-2,1.4545622E-2,5.8578696E-2,1.6343969E-1,-1.5600742E-1,9.9241555E-1,-4.3645096E-3,3.3192255E-2,-1.0968081E-1,5.2663784E-9,9.755773E-3,1.2514498E-8,7.947049E-6,5.034748E-3,1.4606991E-1,1.841203E-2,4.38395E-4,1.4564447E-1,2.6333265E-3,3.2480125E-9,3.9130338E-2,-7.8837395E-2,3.544893E-2,1.4167373E-1,-9.695526E-4,-2.9328957E-3,-5.7996042E-2,-4.722911E-3,2.5817806E-2,9.894022E-1,4.4606143E-1,7.7773213E-1,7.758716E-4,6.7045434E-8,4.8916563E-3,7.4949615E-2,4.140544E-3,-5.5924963E-2,1.7596146E-2,5.3047318E-2,-4.5971875E-3,2.0881127E-4,-1.17696725E-1,2.4100757E-7,5.653565E-2,4.5188656E-8,2.9264603E-2,1.8244695E-2,-2.0759601E-2,-5.66778E-2,7.736658E-4,1.4778798E-8,4.7692206E-2,-1.1952636E-2,1.8594306E-2,-1.3283809E-1,-2.4165316E-3],"split_indices":[496,0,70,478,486,499,264,0,1,277,13,364,498,0,69,363,214,474,418,455,347,0,0,113,0,268,0,193,0,0,0,280,0,363,156,0,210,0,0,0,0,32,0,0,0,0,0,0,0,0,47,2,12,1,0,231,24,0,0,0,0,0,0,412,0,400,0,300,0,0,0,0,0,9,291,0,0,0,0],"split_type":[0,0,0,0,0,0,0,0,0,0,0,0,0,0,0,0,0,0,0,0,0,0,0,0,0,0,0,0,0,0,0,0,0,0,0,0,0,0,0,0,0,0,0,0,0,0,0,0,0,0,0,0,0,0,0,0,0,0,0,0,0,0,0,0,0,0,0,0,0,0,0,0,0,0,0,0,0,0,0],"sum_hessian":[1.7874535E3,8.1870013E2,9.6875336E2,7.5309644E2,6.560371E1,1.8832504E2,7.804283E2,6.591193E2,9.39771E1,3.1150425E1,3.445328E1,1.1473372E2,7.3591324E1,5.632827E0,7.747955E2,7.5759575E1,1.8217525E1,8.526415E0,2.262401E1,3.2417255E1,2.0360265E0,1.1253179E2,2.2019243E0,6.820653E1,5.3847957E0,1.1958227E1,7.628372E2,7.452019E1,1.2393858E0,2.2706773E0,1.5946849E1,7.509047E0,1.0173674E0,1.091196E1,1.1712051E1,1.2599739E0,3.115728E1,1.0350783E0,1.0009481E0,1.1130094E2,1.230848E0,6.562615E1,2.580374E0,9.208905E0,2.7493224E0,7.305232E1,1.4678644E0,1.2414347E0,6.2676125E0,1.2332385E0,9.67872E0,5.860136E0,5.851916E0,3.0156445E1,1.0008355E0,1.0442014E1,5.518414E1,7.9209356E0,1.7577851E0,4.8287168E0,1.0314192E0,4.6149144E0,1.2370014E0,2.2415626E0,2.7914883E1,6.0712852E0,4.370729E0,5.3375954E1,1.8081887E0,1.0346868E0,1.2068759E0,5.070818E0,1.0004673E0,2.257404E0,5.111855E1,1.2220294E0,1.0353746E0,4.9882732E1,1.2358143E0],"tree_param":{"num_deleted":"0","num_feature":"500","num_nodes":"79","size_leaf_vector":"1"}},{"base_weights":[3.1841947E-3,1.2483099E0,-1.0524685E0,1.4050505E0,-4.498947E-1,5.351564E-1,-1.4423789E0,1.4671025E-1,7.904875E-1,1.3068731E-1,-8.9152265E-1,1.3140001E0,-6.8046194E-1,6.307326E-2,-1.4662443E0,1.2834184E0,-6.8004495E-1,-4.699022E-1,4.1227007E-1,-9.844789E-1,1.7120221E-1,1.3577852E0,-1.874917E-2,-8.4229314E-1,5.6642365E-2,-4.590503E-1,-1.4761335E-1,1.3153692E-1,-5.6128222E-3,3.674392E-2,-9.219793E-1,-5.631075E-1,9.84729E-3,1.2091733E-2,6.149518E-1,4.9784384E-3,-1.029024E0,1.8281952E-2,3.923228E-4,1.3763557E-1,-4.55919E-3,-9.3715656E-1,3.8346715E-2,3.5566937E-2,-7.6276E-2,-3.1771192E-3,-9.527357E-2,-5.885147E-2,-2.6752534E-3,4.157508E-2,-3.5473403E-1,6.577324E-1,4.4248253E-2,-1.0575311E0,8.5999706E-4,-1.4341804E-2,-1.0865084E0,-4.95586E-2,1.2442633E-2,6.458222E-2,7.250425E-2,9.323216E-3,-4.312795E-3,-2.9419218E-3,-1.0971963E-1,-5.0906956E-1,5.490592E-2,-1.1737545E0,2.8823758E-2,-2.0874947E-2,2.6950732E-2,-5.4860443E-2,7.791892E-4,5.759947E-2,-1.2303957E0,-1.1873409E-2,1.8471273E-2,-1.2535905E0,-1.3590009E-3,-6.4257286E-3,-1.2658258E-1],"categories":[],"categories_nodes":[],"categories_segments":[],"categories_sizes":[],"default_left":[0,0,0,0,0,0,0,0,0,0,0,0,0,0,0,0,0,0,0,0,0,0,0,0,0,0,0,0,0,0,0,0,0,0,0,0,0,0,0,0,0,0,0,0,0,0,0,0,0,0,0,0,0,0,0,0,0,0,0,0,0,0,0,0,0,0,0,0,0,0,0,0,0,0,0,0,0,0,0,0,0],"id":4,"left_children":[1,3,5,7,9,11,13,-1,15,17,19,21,23,-1,25,27,29,31,33,35,37,39,-1,41,-1,43,-1,-1,-1,-1,45,47,-1,49,51,-1,53,-1,-1,-1,-1,55,-1,-1,-1,-1,-1,-1,-1,-1,57,59,61,63,-1,65,67,-1,-1,69,-1,-1,-1,-1,-1,71,-1,73,-1,-1,-1,-1,-1,75,77,-1,-1,79,-1,-1,-1],"loss_changes":[2.2769243E3,2.1787769E2,5.8804614E2,1.6243408E1,2.0326935E1,1.9085104E2,4.661914E1,0E0,7.297769E1,8.872518E0,6.0048866E0,1.0468948E1,2.1240215E1,0E0,6.916504E-1,3.7277222E0,1.0683439E1,1.4955182E0,2.6221728E0,2.4329758E0,1.6216666E-2,3.7109985E0,0E0,1.2461483E1,0E0,8.107868E0,0E0,0E0,0E0,0E0,4.1565323E-1,7.080078E-2,0E0,4.64028E0,2.4287415E-1,0E0,1.2868309E0,0E0,0E0,0E0,0E0,1.0000183E1,0E0,0E0,0E0,0E0,0E0,0E0,0E0,0E0,1.7367055E0,3.151512E-1,9.262321E-2,1.2851334E0,0E0,8.48076E0,1.0974236E1,0E0,0E0,1.2895014E0,0E0,0E0,0E0,0E0,0E0,3.7071657E-1,0E0,4.996956E0,0E0,0E0,0E0,0E0,0E0,4.9404162E-1,1.5012512E0,0E0,0E0,3.0776978E-2,0E0,0E0,0E0],"parents":[2147483647,0,0,1,1,2,2,3,3,4,4,5,5,6,6,8,8,9,9,10,10,11,11,12,12,14,14,15,15,16,16,17,17,18,18,19,19,20,20,21,21,23,23,25,25,30,30,31,31,33,33,34,34,36,36,41,41,50,50,51,51,52,52,53,53,55,55,56,56,59,59,65,65,67,67,73,73,74,74,77,77],"right_children":[2,4,6,8,10,12,14,-1,16,18,20,22,24,-1,26,28,30,32,34,36,38,40,-1,42,-1,44,-1,-1,-1,-1,46,48,-1,50,52,-1,54,-1,-1,-1,-1,56,-1,-1,-1,-1,-1,-1,-1,-1,58,60,62,64,-1,66,68,-1,-1,70,-1,-1,-1,-1,-1,72,-1,74,-1,-1,-1,-1,-1,76,78,-1,-1,80,-1,-1,-1],"split_conditions":[1.2362905E-2,9.976939E-1,5.619648E-3,3.4819578E-4,3.4595206E-7,9.973716E-1,1.2395316E-3,1.4671025E-1,1.3256483E-3,1.2583172E-7,7.195317E-1,9.9811244E-1,9.962609E-1,6.307326E-2,1.1472981E-2,9.904115E-1,1.3618855E-3,9.908827E-1,2.8942473E-9,1.464405E-7,5.538687E-5,4.9678204E-3,-1.874917E-2,1.4545622E-2,5.6642365E-2,1.4929564E-1,-1.4761335E-1,1.3153692E-1,-5.6128222E-3,3.674392E-2,1.6594788E-3,4.90062E-7,9.84729E-3,2.5644468E-7,4.262485E-6,4.9784384E-3,1.1925725E-1,1.8281952E-2,3.923228E-4,1.3763557E-1,-4.55919E-3,3.2480125E-9,3.8346715E-2,3.5566937E-2,-7.6276E-2,-3.1771192E-3,-9.527357E-2,-5.885147E-2,-2.6752534E-3,4.157508E-2,5.8086205E-4,3.8418232E-8,8.409975E-2,5.8947796E-1,8.5999706E-4,6.7045434E-8,4.8916563E-3,-4.95586E-2,1.2442633E-2,9.421903E-1,7.250425E-2,9.323216E-3,-4.312795E-3,-2.9419218E-3,-1.0971963E-1,1.2578622E-7,5.490592E-2,4.5188656E-8,2.8823758E-2,-2.0874947E-2,2.6950732E-2,-5.4860443E-2,7.791892E-4,3.1041475E-7,3.8197245E-2,-1.1873409E-2,1.8471273E-2,1.2129304E-8,-1.3590009E-3,-6.4257286E-3,-1.2658258E-1],"split_indices":[496,0,71,495,486,499,264,0,0,308,13,364,498,0,69,360,279,1,499,455,273,0,0,113,0,492,0,0,0,0,17,242,0,315,421,0,227,0,0,0,0,32,0,0,0,0,0,0,0,0,70,360,14,2,0,231,24,0,0,1,0,0,0,0,0,363,0,300,0,0,0,0,0,159,274,0,0,97,0,0,0],"split_type":[0,0,0,0,0,0,0,0,0,0,0,0,0,0,0,0,0,0,0,0,0,0,0,0,0,0,0,0,0,0,0,0,0,0,0,0,0,0,0,0,0,0,0,0,0,0,0,0,0,0,0,0,0,0,0,0,0,0,0,0,0,0,0,0,0,0,0,0,0,0,0,0,0,0,0,0,0,0,0,0,0],"sum_hessian":[1.7122698E3,7.847934E2,9.274763E2,7.200597E2,6.473375E1,1.8213586E2,7.4534045E2,6.4142334E2,7.86363E1,3.1008932E1,3.3724815E1,1.1051797E2,7.1617905E1,5.5886307E0,7.3975183E2,5.98475E1,1.87888E1,7.763094E0,2.3245838E1,3.1689241E1,2.0355737E0,1.0831644E2,2.2015274E0,6.626261E1,5.35529E0,1.1803287E1,7.2794855E2,5.862957E1,1.2179317E0,2.5520082E0,1.6236792E1,6.7490296E0,1.0140643E0,1.1377832E1,1.1868005E1,1.2599169E0,3.0429325E1,1.0346973E0,1.0008764E0,1.07091866E2,1.2245703E0,6.368818E1,2.5744333E0,2.740606E0,9.06268E0,1.2211764E0,1.5015615E1,5.5152845E0,1.2337453E0,4.7819653E0,6.5958676E0,9.621801E0,2.2462032E0,2.9428959E1,1.0003657E0,1.0398466E1,5.3289715E1,4.83252E0,1.7633474E0,2.9775703E0,6.6442313E0,1.0098637E0,1.2363396E0,1.7402017E0,2.7688757E1,6.0501337E0,4.348332E0,5.148437E1,1.8053432E0,1.1958741E0,1.7816961E0,5.0497313E0,1.0004028E0,2.256652E0,4.922772E1,1.2214401E0,1.035212E0,4.8010242E1,1.2174774E0,1.1254842E0,4.6884758E1],"tree_param":{"num_deleted":"0","num_feature":"500","num_nodes":"81","size_leaf_vector":"1"}},{"base_weights":[3.8660862E-3,1.1842548E0,-9.986108E-1,1.3375894E0,-4.1766784E-1,5.0679106E-1,-1.3738046E0,1.4051461E-1,7.7924657E-1,1.2690796E-1,-8.3919394E-1,1.252207E0,-6.322159E-1,6.103157E-2,-1.39783E0,1.2228161E0,-7.8921753E-1,-4.3852532E-1,4.0961653E-1,-9.3091506E-1,1.6960649E-1,1.296683E0,-1.873321E-2,-7.8980917E-1,5.4805387E-2,-2.353086E-1,-1.4025126E-1,1.2489719E0,-4.881466E-3,3.1399336E-2,-1.0102268E-1,-5.2541566E-1,9.723244E-3,5.9956044E-1,3.778518E-2,4.922764E-3,-9.7451377E-1,1.8153192E-2,3.4670488E-4,1.3090919E-1,1.46065E-3,-8.835137E-1,3.758577E-2,-4.2151242E-2,2.1317137E-2,1.2744343E-1,-1.4289168E-3,-3.6605876E-3,-5.6359716E-2,-4.712982E-3,6.642658E-1,-3.7897566E-1,4.3126592E-1,-1.0021888E0,8.521755E-4,2.6607906E-2,-1.0155668E0,7.042786E-2,3.858629E-3,-5.322025E-2,1.7043881E-2,5.036291E-2,-4.656505E-3,-5.5001058E-2,-1.0519164E-1,-4.092787E-1,4.8305843E-2,-1.0999882E0,2.8391922E-2,1.835209E-2,-2.3693549E-2,-4.4442367E-2,7.7210314E-4,1.3299102E-2,-1.1482507E0,-1.1685461E0,-1.933383E-3,-1.19395845E-1,8.677924E-4],"categories":[],"categories_nodes":[],"categories_segments":[],"categories_sizes":[],"default_left":[0,0,0,0,0,0,0,0,0,0,0,0,0,0,0,0,0,0,0,0,0,0,0,0,0,0,0,0,0,0,0,0,0,0,0,0,0,0,0,0,0,0,0,0,0,0,0,0,0,0,0,0,0,0,0,0,0,0,0,0,0,0,0,0,0,0,0,0,0,0,0,0,0,0,0,0,0,0,0],"id":5,"left_children":[1,3,5,7,9,11,13,-1,15,17,19,21,23,-1,25,27,29,31,33,35,37,39,-1,41,-1,43,-1,45,-1,-1,-1,47,-1,49,51,-1,53,-1,-1,-1,-1,55,-1,-1,-1,-1,-1,-1,-1,-1,57,59,61,63,-1,65,67,-1,-1,-1,-1,-1,-1,69,-1,71,-1,73,-1,-1,-1,-1,-1,-1,75,77,-1,-1,-1],"loss_changes":[1.9517638E3,1.9164453E2,5.1074603E2,1.5215942E1,1.800399E1,1.6520401E2,4.269519E1,0E0,7.7360344E1,8.33149E0,5.5491467E0,9.813019E0,1.9194946E1,0E0,5.7092285E-1,3.2635422E0,9.885168E0,1.3700819E0,2.0635972E0,2.2263756E0,1.7550945E-2,1.6086578E0,0E0,1.1469982E1,0E0,2.1402287E0,0E0,2.7089462E0,0E0,0E0,0E0,1.19234085E-1,0E0,1.1829939E0,5.182459E0,0E0,1.1631126E0,0E0,0E0,0E0,0E0,8.928371E0,0E0,0E0,0E0,0E0,0E0,0E0,0E0,0E0,2.1796227E-1,2.2397256E0,7.810538E-1,1.2401733E0,0E0,5.732019E0,1.0052864E1,0E0,0E0,0E0,0E0,0E0,0E0,9.763044E-1,0E0,2.5513244E-1,0E0,5.178749E0,0E0,0E0,0E0,0E0,0E0,0E0,1.1508942E0,1.8645554E0,0E0,0E0,0E0],"parents":[2147483647,0,0,1,1,2,2,3,3,4,4,5,5,6,6,8,8,9,9,10,10,11,11,12,12,14,14,15,15,16,16,17,17,18,18,19,19,20,20,21,21,23,23,25,25,27,27,31,31,33,33,34,34,36,36,41,41,50,50,51,51,52,52,53,53,55,55,56,56,63,63,65,65,67,67,74,74,75,75],"right_children":[2,4,6,8,10,12,14,-1,16,18,20,22,24,-1,26,28,30,32,34,36,38,40,-1,42,-1,44,-1,46,-1,-1,-1,48,-1,50,52,-1,54,-1,-1,-1,-1,56,-1,-1,-1,-1,-1,-1,-1,-1,58,60,62,64,-1,66,68,-1,-1,-1,-1,-1,-1,70,-1,72,-1,74,-1,-1,-1,-1,-1,-1,76,78,-1,-1,-1],"split_conditions":[1.2362905E-2,9.976939E-1,5.5496017E-3,6.478426E-4,3.4595206E-7,9.973716E-1,1.2395316E-3,1.4051461E-1,3.917845E-3,1.02561856E-7,7.195317E-1,9.977692E-1,9.962609E-1,6.103157E-2,2.8732084E-2,9.961039E-1,1.950868E-3,6.946096E-8,5.9016294E-8,1.464405E-7,9.980889E-4,3.995431E-3,-1.873321E-2,1.4545622E-2,5.4805387E-2,1.1370204E-1,-1.4025126E-1,9.9241555E-1,-4.881466E-3,3.1399336E-2,-1.0102268E-1,1.7763735E-8,9.723244E-3,2.9747486E-8,7.947049E-6,4.922764E-3,1.1925725E-1,1.8153192E-2,3.4670488E-4,1.3090919E-1,1.46065E-3,3.1548755E-9,3.758577E-2,-4.2151242E-2,2.1317137E-2,1.2744343E-1,-1.4289168E-3,-3.6605876E-3,-5.6359716E-2,-4.712982E-3,2.5817806E-2,9.894022E-1,4.4606143E-1,7.7773213E-1,8.521755E-4,6.7045434E-8,4.8916563E-3,7.042786E-2,3.858629E-3,-5.322025E-2,1.7043881E-2,5.036291E-2,-4.656505E-3,2.0881127E-4,-1.0519164E-1,1.2578622E-7,4.8305843E-2,2.0072948E-8,2.8391922E-2,1.835209E-2,-2.3693549E-2,-4.4442367E-2,7.7210314E-4,1.3299102E-2,4.7692206E-2,3.1397745E-2,-1.933383E-3,-1.19395845E-1,8.677924E-4],"split_indices":[496,0,70,478,486,499,264,0,1,277,13,363,498,0,446,363,214,460,418,455,347,31,0,113,0,184,0,193,0,0,0,340,0,374,156,0,227,0,0,0,0,33,0,0,0,0,0,0,0,0,47,2,12,1,0,231,24,0,0,0,0,0,0,412,0,363,0,337,0,0,0,0,0,0,291,260,0,0,0],"split_type":[0,0,0,0,0,0,0,0,0,0,0,0,0,0,0,0,0,0,0,0,0,0,0,0,0,0,0,0,0,0,0,0,0,0,0,0,0,0,0,0,0,0,0,0,0,0,0,0,0,0,0,0,0,0,0,0,0,0,0,0,0,0,0,0,0,0,0,0,0,0,0,0,0,0,0,0,0,0,0],"sum_hessian":[1.6294131E3,7.474721E2,8.819409E2,6.836809E2,6.3791214E1,1.7525449E2,7.0668646E2,5.9635815E2,8.732276E1,3.0882708E1,3.290851E1,1.0532884E2,6.992565E1,5.5352306E0,7.0115125E2,6.978964E1,1.7533125E1,8.456884E0,2.2425823E1,3.0873514E1,2.0349927E0,1.0313477E2,2.1940672E0,6.4607315E1,5.318333E0,4.8689303E0,6.962823E2,6.855768E1,1.2319592E0,2.2240582E0,1.5309066E1,7.4428287E0,1.014056E0,1.0789605E1,1.1636218E1,1.2598448E0,2.961367E1,1.0342735E0,1.0007192E0,1.0193743E2,1.1973401E0,6.2040585E1,2.5667315E0,3.865379E0,1.0035512E0,6.711643E1,1.4412458E0,1.9583852E0,5.4844437E0,1.2284323E0,9.5611725E0,5.829963E0,5.8062553E0,2.8613293E1,1.0003767E0,8.872892E0,5.3167694E1,7.805767E0,1.7554055E0,4.8035693E0,1.0263939E0,4.573708E0,1.232547E0,2.4777987E0,2.6135494E1,5.0673165E0,3.8055758E0,5.13659E1,1.8017933E0,1.0344293E0,1.4433694E0,4.066907E0,1.0004092E0,1.2735791E0,5.009232E1,4.8862843E1,1.2294766E0,4.7691196E1,1.1716481E0],"tree_param":{"num_deleted":"0","num_feature":"500","num_nodes":"79","size_leaf_vector":"1"}},{"base_weights":[4.729653E-3,1.1297343E0,-9.5233876E-1,1.281107E0,-3.899846E-1,4.834845E-1,-1.3161348E0,1.3479428E-1,7.3631227E-1,2.082404E-2,-9.345797E-1,1.1937494E0,-5.8335584E-1,5.9101827E-2,-1.3405124E0,1.1663024E0,-7.467119E-1,-1.9002804E-1,5.6975305E-2,8.046321E-3,-1.0012962E-1,1.2387962E0,-1.8397463E-2,-7.37451E-1,5.3060573E-2,-3.7884316E-1,-1.3511406E-1,1.1925995E0,-4.827784E-3,3.086074E-2,-9.640799E-2,1.8677936E-1,-5.2752054E-1,1.2512821E-1,1.2265353E-3,-8.304816E-1,3.6846805E-2,-6.8498865E-2,3.6450665E-2,1.2180688E-1,-1.4108946E-3,-3.4788805E-1,5.1352096E-1,-7.26672E-1,2.0657788E-1,-7.3587094E-3,-9.708475E-1,4.535158E-2,-4.4789523E-2,6.3127494E-1,-8.0744766E-2,5.8732657E-3,-7.995921E-2,-7.5930874E-3,2.9484192E-2,-4.756351E-1,5.215099E-2,-1.057924E0,2.7968947E-2,-1.86989E-2,2.3537807E-2,6.694177E-2,3.7538519E-3,-2.4940075E-2,1.6741378E-2,-5.130093E-2,7.65081E-4,6.819716E-2,-1.1155987E0,-1.1069698E-2,1.88174E-2,-1.1368375E0,-1.9122496E-3,-5.1973965E-3,-1.14908755E-1],"categories":[],"categories_nodes":[],"categories_segments":[],"categories_sizes":[],"default_left":[0,0,0,0,0,0,0,0,0,0,0,0,0,0,0,0,0,0,0,0,0,0,0,0,0,0,0,0,0,0,0,0,0,0,0,0,0,0,0,0,0,0,0,0,0,0,0,0,0,0,0,0,0,0,0,0,0,0,0,0,0,0,0,0,0,0,0,0,0,0,0,0,0,0,0],"id":6,"left_children":[1,3,5,7,9,11,13,-1,15,17,19,21,23,-1,25,27,29,31,-1,-1,-1,33,-1,35,-1,37,-1,39,-1,-1,-1,41,43,-1,-1,45,-1,-1,-1,-1,-1,47,49,51,53,55,57,59,-1,61,63,-1,-1,-1,-1,65,-1,67,-1,-1,-1,-1,-1,-1,-1,-1,-1,69,71,-1,-1,73,-1,-1,-1],"loss_changes":[1.6820142E3,1.7018396E2,4.4728705E2,1.3937744E1,1.6461931E1,1.4180637E2,3.9358887E1,0E0,6.843004E1,7.0120416E0,2.9376888E0,9.112869E0,1.7274858E1,0E0,1.736206E0,3.0193405E0,9.202571E0,6.645719E0,0E0,0E0,0E0,1.4992676E0,0E0,1.0525982E1,0E0,7.3276916E0,0E0,2.4853287E0,0E0,0E0,0E0,6.7506275E0,5.316172E0,0E0,0E0,8.017258E0,0E0,0E0,0E0,0E0,0E0,8.614476E-1,2.026535E0,1.7719879E0,5.568895E-1,7.5018744E0,9.463394E0,9.908947E-1,0E0,1.8409777E-1,9.386369E-1,0E0,0E0,0E0,0E0,3.2795715E-1,0E0,4.523651E0,0E0,0E0,0E0,0E0,0E0,0E0,0E0,0E0,0E0,4.7115234E-1,1.079483E0,0E0,0E0,1.2652588E-1,0E0,0E0,0E0],"parents":[2147483647,0,0,1,1,2,2,3,3,4,4,5,5,6,6,8,8,9,9,10,10,11,11,12,12,14,14,15,15,16,16,17,17,21,21,23,23,25,25,27,27,31,31,32,32,35,35,41,41,42,42,43,43,44,44,45,45,46,46,47,47,49,49,50,50,55,55,57,57,67,67,68,68,71,71],"right_children":[2,4,6,8,10,12,14,-1,16,18,20,22,24,-1,26,28,30,32,-1,-1,-1,34,-1,36,-1,38,-1,40,-1,-1,-1,42,44,-1,-1,46,-1,-1,-1,-1,-1,48,50,52,54,56,58,60,-1,62,64,-1,-1,-1,-1,66,-1,68,-1,-1,-1,-1,-1,-1,-1,-1,-1,70,72,-1,-1,74,-1,-1,-1],"split_conditions":[1.2362905E-2,9.976939E-1,5.5496017E-3,6.478426E-4,3.2594013E-5,9.973716E-1,1.2395316E-3,1.3479428E-1,3.917845E-3,1.8540997E-4,1.42571835E-5,9.977692E-1,9.962609E-1,5.9101827E-2,1.1472981E-2,9.961039E-1,1.950868E-3,1.9934582E-7,5.6975305E-2,8.046321E-3,-1.0012962E-1,5.3493674E-3,-1.8397463E-2,1.4545622E-2,5.3060573E-2,1.6343969E-1,-1.3511406E-1,9.9241555E-1,-4.827784E-3,3.086074E-2,-9.640799E-2,1.02561856E-7,1.1604778E-3,1.2512821E-1,1.2265353E-3,3.2480125E-9,3.6846805E-2,-6.8498865E-2,3.6450665E-2,1.2180688E-1,-1.4108946E-3,1.7763735E-8,2.142122E-8,9.203364E-10,1.7617252E-7,6.7045434E-8,4.8916563E-3,6.2208168E-9,-4.4789523E-2,2.5817806E-2,2.5932172E-3,5.8732657E-3,-7.995921E-2,-7.5930874E-3,2.9484192E-2,1.2578622E-7,5.215099E-2,4.5188656E-8,2.7968947E-2,-1.86989E-2,2.3537807E-2,6.694177E-2,3.7538519E-3,-2.4940075E-2,1.6741378E-2,-5.130093E-2,7.65081E-4,1.4778798E-8,4.7692206E-2,-1.1069698E-2,1.88174E-2,1.2129304E-8,-1.9122496E-3,-5.1973965E-3,-1.14908755E-1],"split_indices":[496,0,70,478,493,499,264,0,1,179,274,363,498,0,69,363,214,349,0,0,0,8,0,113,0,268,0,193,0,0,0,277,64,0,0,32,0,0,0,0,0,340,498,488,436,231,24,416,0,47,57,0,0,0,0,363,0,300,0,0,0,0,0,0,0,0,0,9,291,0,0,97,0,0,0],"split_type":[0,0,0,0,0,0,0,0,0,0,0,0,0,0,0,0,0,0,0,0,0,0,0,0,0,0,0,0,0,0,0,0,0,0,0,0,0,0,0,0,0,0,0,0,0,0,0,0,0,0,0,0,0,0,0,0,0,0,0,0,0,0,0,0,0,0,0,0,0,0,0,0,0,0,0],"sum_hessian":[1.5421921E3,7.0807153E2,8.341206E2,6.4536017E2,6.2711407E1,1.6795377E2,6.661668E2,5.617073E2,8.3652885E1,4.122868E1,2.1482729E1,1.0011267E2,6.7841095E1,5.4739614E0,6.606929E2,6.650576E1,1.714713E1,3.4510765E1,6.717912E0,1.197851E0,2.0284878E1,9.791944E1,2.1932344E0,6.256619E1,5.2749076E0,1.1227737E1,6.4946515E2,6.527349E1,1.2322702E0,2.2117314E0,1.4935398E1,1.8415592E1,1.6095173E1,9.673291E1,1.1865278E0,6.0008793E1,2.557398E0,8.508613E0,2.7191248E0,6.3832073E1,1.4414151E0,6.7397437E0,1.1675849E1,1.2740109E1,3.3550634E0,1.0275609E1,4.973318E1,2.47458E0,4.265164E0,9.225118E0,2.4507313E0,1.2476445E0,1.1492465E1,1.1313212E0,2.2237422E0,5.983866E0,4.291743E0,4.7935604E1,1.7975776E0,1.1852506E0,1.2893293E0,7.470534E0,1.7545834E0,1.4292873E0,1.0214438E0,4.983451E0,1.0004154E0,2.2465427E0,4.568906E1,1.212335E0,1.0342078E0,4.4459774E1,1.2292881E0,1.0818164E0,4.3377956E1],"tree_param":{"num_deleted":"0","num_feature":"500","num_nodes":"75","size_leaf_vector":"1"}},{"base_weights":[5.3484472E-3,1.0408602E0,-9.501033E-1,1.2234914E0,-4.879872E-1,4.6303824E-1,-1.2931428E0,1.2465959E0,1.8970422E-2,2.4148138E-2,-9.9514765E-1,1.2052635E0,-5.0374043E-1,3.0541627E-2,-1.3050966E-1,1.2652509E0,1.749467E-1,5.2648764E-2,-5.4061443E-2,-1.7921743E-1,5.475221E-2,-1.0573862E0,8.756732E-3,1.21398784E-1,5.3979675E-3,-6.530727E-1,5.1401388E-2,1.2874779E0,5.0101006E-1,5.8470543E-2,-4.565158E-2,1.7696358E-1,-4.9917504E-1,-1.0752238E-1,-4.411537E-3,-7.5886005E-1,3.5897892E-2,1.2980957E0,2.3962452E-1,8.626459E-2,-4.9902417E-2,-3.3767378E-1,4.934651E-1,-6.933532E-1,2.023688E-1,-8.5829014E-1,3.5536524E-2,1.3015494E0,-4.430132E-3,4.861066E-2,-2.5243912E-2,4.470131E-2,-4.354844E-2,6.0821694E-1,-7.927226E-2,5.808008E-3,-7.647028E-1,-7.661701E-3,2.8980792E-2,4.806856E-3,-9.9123734E-1,1.3055736E-1,6.37477E-2,-1.85061E-2,2.3267634E-2,4.032167E-3,6.48871E-2,-2.4630068E-2,1.6589267E-2,-7.968001E-2,-4.711993E-3,-3.8508797E-1,4.3505635E-2,1.2997033E-2,-1.0414029E0,1.57327E-2,-9.01856E-3,-4.1853253E-2,7.581223E-4,-1.0855465E0,8.254507E-3,-4.955528E-3,-1.0966854E0,-1.1082772E-1,-4.956025E-3],"categories":[],"categories_nodes":[],"categories_segments":[],"categories_sizes":[],"default_left":[0,0,0,0,0,0,0,0,0,0,0,0,0,0,0,0,0,0,0,0,0,0,0,0,0,0,0,0,0,0,0,0,0,0,0,0,0,0,0,0,0,0,0,0,0,0,0,0,0,0,0,0,0,0,0,0,0,0,0,0,0,0,0,0,0,0,0,0,0,0,0,0,0,0,0,0,0,0,0,0,0,0,0,0,0],"id":7,"left_children":[1,3,5,7,9,11,13,15,17,19,21,23,25,-1,-1,27,29,-1,-1,31,-1,33,-1,-1,-1,35,-1,37,39,-1,-1,41,43,-1,-1,45,-1,47,49,-1,-1,51,53,55,57,59,-1,61,-1,-1,-1,63,-1,65,67,-1,69,-1,-1,71,73,-1,75,-1,-1,-1,-1,-1,-1,-1,-1,77,-1,-1,79,-1,-1,-1,-1,81,-1,-1,83,-1,-1],"loss_changes":[1.457766E3,2.0339154E2,3.7749048E2,1.742041E1,2.1694012E1,1.1877136E2,1.582019E1,1.0228577E1,9.12132E0,6.3946843E0,3.7384872E0,2.6669312E-1,1.4795671E1,0E0,0E0,3.91333E0,8.427223E0,0E0,0E0,5.9162083E0,0E0,2.5286102E-1,0E0,0E0,0E0,1.0222506E1,0E0,3.414734E0,1.6460926E1,0E0,0E0,6.272788E0,4.928802E0,0E0,0E0,1.0430809E1,0E0,3.2579346E0,3.4281087E0,0E0,0E0,8.195032E-1,1.9000592E0,1.652072E0,5.4773945E-1,7.4018326E0,0E0,2.0427856E0,0E0,0E0,0E0,9.692589E-1,0E0,1.7993593E-1,9.1833305E-1,0E0,1.14727974E-1,0E0,0E0,4.7798142E0,4.4799194E0,0E0,3.2027388E-1,0E0,0E0,0E0,0E0,0E0,0E0,0E0,0E0,2.2889113E-1,0E0,0E0,3.590847E0,0E0,0E0,0E0,0E0,6.777191E-2,0E0,0E0,8.106995E-2,0E0,0E0],"parents":[2147483647,0,0,1,1,2,2,3,3,4,4,5,5,6,6,7,7,8,8,9,9,10,10,11,11,12,12,15,15,16,16,19,19,21,21,25,25,27,27,28,28,31,31,32,32,35,35,37,37,38,38,41,41,42,42,43,43,44,44,45,45,47,47,51,51,53,53,54,54,56,56,59,59,60,60,62,62,71,71,74,74,79,79,82,82],"right_children":[2,4,6,8,10,12,14,16,18,20,22,24,26,-1,-1,28,30,-1,-1,32,-1,34,-1,-1,-1,36,-1,38,40,-1,-1,42,44,-1,-1,46,-1,48,50,-1,-1,52,54,56,58,60,-1,62,-1,-1,-1,64,-1,66,68,-1,70,-1,-1,72,74,-1,76,-1,-1,-1,-1,-1,-1,-1,-1,78,-1,-1,80,-1,-1,-1,-1,82,-1,-1,84,-1,-1],"split_conditions":[5.1232837E-2,9.976939E-1,2.5983177E-2,9.924241E-1,3.2594013E-5,9.973716E-1,6.661602E-3,9.623596E-1,1.19879626E-1,1.8540997E-4,6.411195E-1,4.775735E-2,9.962609E-1,3.0541627E-2,-1.3050966E-1,9.6783507E-1,1.0979984E-1,5.2648764E-2,-5.4061443E-2,1.9934582E-7,5.475221E-2,9.6468943E-1,8.756732E-3,1.21398784E-1,5.3979675E-3,1.4959885E-2,5.1401388E-2,9.9686956E-1,9.88274E-4,5.8470543E-2,-4.565158E-2,1.02561856E-7,1.1604778E-3,-1.0752238E-1,-4.411537E-3,4.8916563E-3,3.5897892E-2,2.4590045E-1,1.0085398E-3,8.626459E-2,-4.9902417E-2,1.7763735E-8,2.142122E-8,9.203364E-10,7.342342E-1,3.1548755E-9,3.5536524E-2,9.984085E-1,-4.430132E-3,4.861066E-2,-2.5243912E-2,6.2208168E-9,-4.354844E-2,8.554443E-10,2.5932172E-3,5.808008E-3,5.0698034E-4,-7.661701E-3,2.8980792E-2,6.7045434E-8,2.0072948E-8,1.3055736E-1,4.308162E-6,-1.85061E-2,2.3267634E-2,4.032167E-3,6.48871E-2,-2.4630068E-2,1.6589267E-2,-7.968001E-2,-4.711993E-3,1.2578622E-7,4.3505635E-2,1.2997033E-2,2.6609324E-2,1.57327E-2,-9.01856E-3,-4.1853253E-2,7.581223E-4,1.8828963E-7,8.254507E-3,-4.955528E-3,8.7735903E-1,-1.1082772E-1,-4.956025E-3],"split_indices":[488,0,244,362,493,499,105,33,442,179,13,223,498,0,0,11,77,0,0,349,0,1,0,0,0,116,0,189,470,0,0,277,64,0,0,24,0,496,468,0,0,340,498,488,2,33,0,234,0,0,0,416,0,494,57,0,84,0,0,231,337,0,0,0,0,0,0,0,0,0,0,363,0,0,285,0,0,0,0,420,0,0,492,0,0],"split_type":[0,0,0,0,0,0,0,0,0,0,0,0,0,0,0,0,0,0,0,0,0,0,0,0,0,0,0,0,0,0,0,0,0,0,0,0,0,0,0,0,0,0,0,0,0,0,0,0,0,0,0,0,0,0,0,0,0,0,0,0,0,0,0,0,0,0,0,0,0,0,0,0,0,0,0,0,0,0,0,0,0,0,0,0,0],"sum_hessian":[1.4534159E3,6.970568E2,7.563591E2,6.244583E2,7.259849E1,1.4705832E2,6.093008E2,6.12363E2,1.2095337E1,4.0860767E1,3.1737719E1,8.179501E1,6.5263306E1,2.7002876E0,6.0660046E2,6.001098E2,1.2253181E1,6.652915E0,5.442422E0,3.4162205E1,6.6985593E0,3.0233711E1,1.5040073E0,8.06393E1,1.1557176E0,6.0037388E1,5.22592E0,5.764967E2,2.3613096E1,7.880166E0,4.373016E0,1.8280863E1,1.5881343E1,2.9109842E1,1.1238694E0,5.6620724E1,3.4166641E0,5.683495E2,8.147239E0,1.835084E1,5.2622566E0,6.7066984E0,1.1574165E1,1.2529965E1,3.3513775E0,5.40908E1,2.529921E0,5.671945E2,1.1549479E0,5.5088396E0,2.6383991E0,2.4721246E0,4.234574E0,9.126196E0,2.4479697E0,1.247844E0,1.1282122E1,1.0950744E0,2.256303E0,8.506271E0,4.558453E1,5.648108E2,2.3837533E0,1.1821733E0,1.2899512E0,1.9403104E0,7.1858854E0,1.428453E0,1.0195167E0,9.742402E0,1.5397192E0,5.013062E0,3.4932096E0,1.2709246E0,4.4313606E1,1.3453941E0,1.0383592E0,4.0126405E0,1.0004212E0,4.2967693E1,1.3459104E0,1.0366981E0,4.1930996E1,4.08943E1,1.0366997E0],"tree_param":{"num_deleted":"0","num_feature":"500","num_nodes":"85","size_leaf_vector":"1"}},{"base_weights":[6.3246167E-3,1.0516685E0,-8.686245E-1,1.1995839E0,-3.274693E-1,5.4157317E-1,-1.2103302E0,1.2157581E0,-4.032739E-2,1.1350399E-1,-7.1772885E-1,1.1370099E0,-4.0302086E-1,3.6226046E-1,-1.2425404E0,1.2275643E0,4.841161E-2,3.4865547E-2,-4.0306624E-2,-1.9640496E-1,5.6053764E-1,-7.911065E-1,1.7864492E-2,1.1727691E0,-1.0217502E-2,-5.5761784E-1,5.2634496E-2,-1.8049276E-2,5.3557223E-1,-4.0733293E-1,-1.2641501E0,1.2378768E0,2.3041566E-1,3.422107E-2,-3.0780649E-2,-4.821938E-1,6.498915E-2,-4.999594E-4,6.096487E-1,6.3610873E-3,-8.379745E-1,1.1843815E-1,1.5222206E-3,-7.066188E-1,4.7921523E-2,5.714642E-2,7.953973E-5,3.95281E-1,-7.754243E-1,-5.7172994E-3,-1.2656473E-1,1.2480959E0,2.3217778E-1,4.7292285E-2,-2.4732327E-2,-4.8786166E-4,-5.1627275E-2,3.7794852E-1,-2.318786E-1,4.340985E-3,6.430397E-2,-3.946075E-2,-8.8439375E-1,-8.058389E-1,3.235264E-2,-1.9597799E-2,5.7525873E-2,-8.106694E-2,-3.902585E-3,1.2524844E0,1.5054427E-1,4.8119348E-2,-2.9290965E-2,4.3626913E-1,-3.823404E-3,1.863818E-2,-4.0242717E-1,1.7147485E-2,-2.0883573E-2,-8.998377E-1,-3.6004882E-3,-8.8957125E-1,2.6808152E-2,1.2544811E-1,5.406141E-3,2.5866643E-2,-1.0345533E-2,-2.0088628E-3,4.9133603E-2,-4.7395475E-2,5.506592E-3,-3.8823634E-3,-9.1563545E-2,6.487377E-2,-9.8150367E-1,-1.5275173E-2,2.1485661E-1,-1.0214177E0,7.678013E-3,2.2831663E-2,6.398818E-4,-1.0479308E0,-6.316097E-3,-4.7320263E-3,-1.0599089E-1],"categories":[],"categories_nodes":[],"categories_segments":[],"categories_sizes":[],"default_left":[0,0,0,0,0,0,0,0,0,0,0,0,0,0,0,0,0,0,0,0,0,0,0,0,0,0,0,0,0,0,0,0,0,0,0,0,0,0,0,0,0,0,0,0,0,0,0,0,0,0,0,0,0,0,0,0,0,0,0,0,0,0,0,0,0,0,0,0,0,0,0,0,0,0,0,0,0,0,0,0,0,0,0,0,0,0,0,0,0,0,0,0,0,0,0,0,0,0,0,0,0,0,0,0,0],"id":8,"left_children":[1,3,5,7,9,11,13,15,17,19,21,23,25,27,29,31,33,-1,-1,35,37,39,-1,41,-1,43,-1,-1,45,47,49,51,53,-1,-1,55,57,-1,59,-1,61,-1,-1,63,-1,-1,-1,65,67,-1,-1,69,71,-1,-1,-1,-1,73,75,-1,-1,77,79,81,-1,-1,-1,-1,-1,83,85,-1,-1,87,-1,-1,89,-1,-1,91,-1,93,-1,-1,-1,-1,-1,-1,-1,-1,-1,-1,-1,95,97,-1,99,101,-1,-1,-1,103,-1,-1,-1],"loss_changes":[1.2676346E3,1.3274414E2,3.701339E2,1.1970398E1,1.2692791E1,9.1241295E1,3.5421997E1,7.197937E0,3.8110693E0,6.786542E0,3.9114685E0,5.501915E0,1.25548315E1,2.8474905E0,5.687805E0,2.899292E0,2.7353408E0,0E0,0E0,2.6771708E0,5.692215E-1,2.0132103E0,0E0,1.09935E0,0E0,1.3004883E1,0E0,0E0,3.3473158E-1,1.18979645E1,3.2537842E-1,2.7681274E0,3.2564735E0,0E0,0E0,2.4001336E-1,3.2305503E0,0E0,5.9841633E-2,0E0,9.7556496E-1,0E0,0E0,8.584322E0,0E0,0E0,0E0,2.8325477E0,3.0326176E-1,0E0,0E0,7.3217773E-1,3.7409527E0,0E0,0E0,0E0,0E0,5.584922E-1,2.1197553E0,0E0,0E0,8.0219835E-1,1.123867E-1,7.4389343E0,0E0,0E0,0E0,0E0,0E0,6.1383057E-1,6.391951E-1,0E0,0E0,4.746456E-1,0E0,0E0,8.1090665E-1,0E0,0E0,8.3753586E-2,0E0,5.4149895E0,0E0,0E0,0E0,0E0,0E0,0E0,0E0,0E0,0E0,0E0,0E0,7.9052585E-1,2.9086037E0,0E0,2.0577729E-2,5.871773E-1,0E0,0E0,0E0,6.414032E-2,0E0,0E0,0E0],"parents":[2147483647,0,0,1,1,2,2,3,3,4,4,5,5,6,6,7,7,8,8,9,9,10,10,11,11,12,12,13,13,14,14,15,15,16,16,19,19,20,20,21,21,23,23,25,25,28,28,29,29,30,30,31,31,32,32,35,35,36,36,38,38,40,40,43,43,47,47,48,48,51,51,52,52,57,57,58,58,61,61,62,62,63,63,69,69,70,70,73,73,76,76,79,79,81,81,93,93,94,94,96,96,97,97,101,101],"right_children":[2,4,6,8,10,12,14,16,18,20,22,24,26,28,30,32,34,-1,-1,36,38,40,-1,42,-1,44,-1,-1,46,48,50,52,54,-1,-1,56,58,-1,60,-1,62,-1,-1,64,-1,-1,-1,66,68,-1,-1,70,72,-1,-1,-1,-1,74,76,-1,-1,78,80,82,-1,-1,-1,-1,-1,84,86,-1,-1,88,-1,-1,90,-1,-1,92,-1,94,-1,-1,-1,-1,-1,-1,-1,-1,-1,-1,-1,96,98,-1,100,102,-1,-1,-1,104,-1,-1,-1],"split_conditions":[1.0705071E-2,9.976939E-1,5.8763083E-3,9.964162E-1,5.061989E-7,9.973716E-1,1.7369858E-3,9.912729E-1,2.2166818E-3,4.216535E-6,7.195317E-1,6.942976E-1,8.3059305E-1,7.840705E-3,1.1472981E-2,9.9686956E-1,2.3964325E-1,3.4865547E-2,-4.0306624E-2,2.7663133E-5,3.8418232E-8,7.013066E-7,1.7864492E-2,7.808088E-1,-1.0217502E-2,2.3142733E-3,5.2634496E-2,-1.8049276E-2,8.2751E-1,1.5501991E-1,1.4995793E-2,9.95999E-1,1.0085398E-3,3.422107E-2,-3.0780649E-2,1.5512757E-6,6.9577145E-5,-4.999594E-4,1.3387036E-10,6.3610873E-3,7.7773213E-1,1.1843815E-1,1.5222206E-3,4.8916563E-3,4.7921523E-2,5.714642E-2,7.953973E-5,1.142664E-2,9.487891E-1,-5.7172994E-3,-1.2656473E-1,1.0620991E-2,9.2407677E-4,4.7292285E-2,-2.4732327E-2,-4.8786166E-4,-5.1627275E-2,8.8800175E-7,8.505396E-9,4.340985E-3,6.430397E-2,2.0881127E-4,8.814273E-1,1.0181411E-2,3.235264E-2,-1.9597799E-2,5.7525873E-2,-8.106694E-2,-3.902585E-3,9.898027E-1,1.7042403E-3,4.8119348E-2,-2.9290965E-2,1.8543952E-8,-3.823404E-3,1.863818E-2,5.3528704E-2,1.7147485E-2,-2.0883573E-2,9.100115E-7,-3.6004882E-3,3.9745163E-10,2.6808152E-2,1.2544811E-1,5.406141E-3,2.5866643E-2,-1.0345533E-2,-2.0088628E-3,4.9133603E-2,-4.7395475E-2,5.506592E-3,-3.8823634E-3,-9.1563545E-2,4.434811E-8,4.4227997E-3,-1.5275173E-2,2.2478328E-9,2.8313647E-4,7.678013E-3,2.2831663E-2,6.398818E-4,2.063694E-7,-6.316097E-3,-4.7320263E-3,-1.0599089E-1],"split_indices":[493,0,257,361,487,499,67,33,142,154,13,0,489,256,69,189,0,0,0,77,360,467,0,359,0,100,0,0,496,495,444,13,468,0,0,68,79,0,499,0,1,0,0,24,0,0,0,214,484,0,0,491,330,0,0,0,0,207,428,0,0,412,3,300,0,0,0,0,0,32,43,0,0,221,0,0,43,0,0,482,0,11,0,0,0,0,0,0,0,0,0,0,0,209,237,0,0,26,0,0,0,421,0,0,0],"split_type":[0,0,0,0,0,0,0,0,0,0,0,0,0,0,0,0,0,0,0,0,0,0,0,0,0,0,0,0,0,0,0,0,0,0,0,0,0,0,0,0,0,0,0,0,0,0,0,0,0,0,0,0,0,0,0,0,0,0,0,0,0,0,0,0,0,0,0,0,0,0,0,0,0,0,0,0,0,0,0,0,0,0,0,0,0,0,0,0,0,0,0,0,0,0,0,0,0,0,0,0,0,0,0,0,0],"sum_hessian":[1.3659769E3,6.2146405E2,7.445128E2,5.624429E2,5.9021225E1,1.4407509E2,6.0043774E2,5.553927E2,7.0501127E0,3.103962E1,2.7981604E1,8.712054E1,5.6954548E1,9.994809E0,5.9044293E2,5.4932117E2,6.071558E0,3.5893383E0,3.4607744E0,2.1642384E1,9.397238E0,2.6949842E1,1.0317624E0,8.519794E1,1.9225975E0,5.22611E1,4.6934466E0,2.318795E0,7.676014E0,1.9897785E1,5.7054517E2,5.413088E2,8.012372E0,3.5427876E0,2.5287704E0,6.30355E0,1.5338833E1,1.4685191E0,7.9287186E0,1.2152531E0,2.5734589E1,8.412221E1,1.0757319E0,4.8479115E1,3.7819877E0,6.5503497E0,1.1256642E0,6.0239816E0,1.3873804E1,1.1922783E0,5.693529E2,5.3347784E2,7.8309803E0,5.3814707E0,2.6309013E0,1.181856E0,5.121694E0,6.137472E0,9.201361E0,1.7223233E0,6.206395E0,2.4302306E0,2.3304358E1,4.620612E1,2.2729938E0,1.198309E0,4.8256726E0,1.2277609E1,1.5961958E0,5.299472E2,3.5306103E0,5.878918E0,1.9520619E0,4.959805E0,1.1776669E0,2.3962722E0,6.8050885E0,1.0271125E0,1.4031181E0,2.2292126E1,1.0122317E0,4.4456497E1,1.7496226E0,5.2859875E2,1.3484343E0,2.3475668E0,1.1830435E0,1.2179774E0,3.7418277E0,5.5738173E0,1.2312716E0,1.0245957E0,2.126753E1,4.164444E0,4.0292053E1,1.6237563E0,2.5406878E0,3.9163334E1,1.1287199E0,1.491713E0,1.0489748E0,3.7198322E1,1.9650122E0,1.0256346E0,3.6172688E1],"tree_param":{"num_deleted":"0","num_feature":"500","num_nodes":"105","size_leaf_vector":"1"}},{"base_weights":[7.3362095E-3,1.0100144E0,-8.3955824E-1,1.1590579E0,-3.1104356E-1,5.1552355E-1,-1.1732501E0,1.2290471E-1,6.2897086E-1,3.3365857E-2,-8.1338614E-1,-3.2430866E-1,1.1276187E-1,3.4887707E-1,-1.2062294E0,1.0745301E-1,-5.8810914E-1,-1.6124585E-1,5.231749E-2,9.020145E-3,-8.860251E-2,-5.9601986E-1,6.5927815E-1,-1.7726688E-2,5.194096E-1,-3.8834822E-1,-1.22854E0,2.7678499E-2,-7.721444E-1,1.6669388E-1,-4.596738E-1,-7.167957E-1,3.7467454E-2,7.141303E-2,-2.9033741E-3,5.5455156E-2,7.873453E-5,3.810431E-1,-7.455177E-1,-5.657939E-3,-1.230078E-1,4.9376242E-2,-8.676502E-2,-3.2220757E-1,4.6879172E-1,-6.4804703E-1,1.9905306E-1,-8.0885875E-1,1.9730088E-1,-1.939222E-2,5.5896547E-2,-7.794321E-2,-3.849112E-3,-8.130784E-3,1.351272E-2,4.5040373E-2,-4.1773416E-2,5.802582E-1,-7.826356E-2,5.818821E-3,-7.1793157E-1,-7.116135E-3,2.818999E-2,9.3389176E-2,-9.113231E-1,2.9224416E-2,-8.10494E-3,-1.7890135E-2,2.267034E-2,6.1859787E-2,2.987552E-3,-2.4048863E-2,1.6110772E-2,-7.4958764E-2,-4.0131523E-3,-1.2955348E-2,2.2679085E-1,-9.611107E-1,1.2051112E-2,2.4207829E-2,5.3480733E-4,-9.7272384E-1,-4.2525134E-3,-9.9560297E-1,-7.7757947E-3,-4.688762E-3,-1.0071392E-1],"categories":[],"categories_nodes":[],"categories_segments":[],"categories_sizes":[],"default_left":[0,0,0,0,0,0,0,0,0,0,0,0,0,0,0,0,0,0,0,0,0,0,0,0,0,0,0,0,0,0,0,0,0,0,0,0,0,0,0,0,0,0,0,0,0,0,0,0,0,0,0,0,0,0,0,0,0,0,0,0,0,0,0,0,0,0,0,0,0,0,0,0,0,0,0,0,0,0,0,0,0,0,0,0,0,0,0],"id":9,"left_children":[1,3,5,7,9,11,13,-1,15,17,19,21,-1,23,25,-1,27,29,-1,-1,-1,31,33,-1,35,37,39,-1,41,43,45,47,-1,-1,-1,-1,-1,49,51,-1,-1,53,-1,55,57,59,61,63,65,-1,-1,-1,-1,-1,-1,67,-1,69,71,-1,73,-1,-1,75,77,-1,-1,-1,-1,-1,-1,-1,-1,-1,-1,-1,79,81,-1,-1,-1,83,-1,85,-1,-1,-1],"loss_changes":[1.1045463E3,1.2086835E2,3.2492566E2,1.2203613E1,1.2081867E1,7.885881E1,3.2766785E1,0E0,5.1409332E1,5.619658E0,2.647499E0,2.2487057E1,0E0,2.69922E0,5.430786E0,0E0,6.7125845E0,5.023568E0,0E0,0E0,0E0,9.680046E0,9.5407104E-1,0E0,3.1483412E-1,1.0938683E1,2.767334E-1,0E0,2.4950972E0,5.655514E0,4.446315E0,6.3499203E0,0E0,0E0,0E0,0E0,0E0,2.7166882E0,2.636671E-1,0E0,0E0,2.466402E-1,0E0,7.7208745E-1,1.760263E0,1.5099802E0,4.9849206E-1,5.777054E0,5.8591723E-1,0E0,0E0,0E0,0E0,0E0,0E0,9.125785E-1,0E0,2.1574783E-1,8.704065E-1,0E0,1.4734364E-1,0E0,0E0,7.251942E-1,3.6641502E0,0E0,0E0,0E0,0E0,0E0,0E0,0E0,0E0,0E0,0E0,0E0,3.0081332E-2,9.4638824E-2,0E0,0E0,0E0,1.7994308E-1,0E0,1.5766144E-2,0E0,0E0,0E0],"parents":[2147483647,0,0,1,1,2,2,3,3,4,4,5,5,6,6,8,8,9,9,10,10,11,11,13,13,14,14,16,16,17,17,21,21,22,22,24,24,25,25,26,26,28,28,29,29,30,30,31,31,37,37,38,38,41,41,43,43,44,44,45,45,46,46,47,47,48,48,55,55,57,57,58,58,60,60,63,63,64,64,76,76,77,77,81,81,83,83],"right_children":[2,4,6,8,10,12,14,-1,16,18,20,22,-1,24,26,-1,28,30,-1,-1,-1,32,34,-1,36,38,40,-1,42,44,46,48,-1,-1,-1,-1,-1,50,52,-1,-1,54,-1,56,58,60,62,64,66,-1,-1,-1,-1,-1,-1,68,-1,70,72,-1,74,-1,-1,76,78,-1,-1,-1,-1,-1,-1,-1,-1,-1,-1,-1,80,82,-1,-1,-1,84,-1,86,-1,-1,-1],"split_conditions":[1.0362166E-2,9.976939E-1,5.8763083E-3,9.784312E-4,3.2594013E-5,7.003054E-2,1.7369858E-3,1.2290471E-1,1.279982E-3,1.8540997E-4,1.0248496E-5,2.3142733E-3,1.1276187E-1,7.840705E-3,1.1472981E-2,1.0745301E-1,2.6843643E-3,1.9934582E-7,5.231749E-2,9.020145E-3,-8.860251E-2,8.785111E-3,2.1752631E-3,-1.7726688E-2,8.2751E-1,1.5501991E-1,1.4995793E-2,2.7678499E-2,1.3256483E-3,1.02561856E-7,1.1604778E-3,3.064857E-3,3.7467454E-2,7.141303E-2,-2.9033741E-3,5.5455156E-2,7.873453E-5,1.142664E-2,9.487891E-1,-5.657939E-3,-1.230078E-1,1.6580472E-6,-8.676502E-2,1.7763735E-8,2.142122E-8,9.203364E-10,1.7617252E-7,3.9745163E-10,2.348842E-1,-1.939222E-2,5.5896547E-2,-7.794321E-2,-3.849112E-3,-8.130784E-3,1.351272E-2,6.2208168E-9,-4.1773416E-2,2.5817806E-2,2.5932172E-3,5.818821E-3,5.0698034E-4,-7.116135E-3,2.818999E-2,4.434811E-8,4.696224E-3,2.9224416E-2,-8.10494E-3,-1.7890135E-2,2.267034E-2,6.1859787E-2,2.987552E-3,-2.4048863E-2,1.6110772E-2,-7.4958764E-2,-4.0131523E-3,-1.2955348E-2,2.8776703E-9,8.130869E-3,1.2051112E-2,2.4207829E-2,5.3480733E-4,3.65324E-4,-4.2525134E-3,2.063694E-7,-7.7757947E-3,-4.688762E-3,-1.0071392E-1],"split_indices":[495,0,257,471,493,459,67,0,79,179,281,100,0,256,69,0,221,349,0,0,0,317,264,0,496,495,444,0,0,277,64,38,0,0,0,0,0,214,484,0,0,0,0,340,498,488,436,11,2,0,0,0,0,0,0,416,0,47,57,0,84,0,0,209,232,0,0,0,0,0,0,0,0,0,0,0,3,345,0,0,0,38,0,421,0,0,0],"split_type":[0,0,0,0,0,0,0,0,0,0,0,0,0,0,0,0,0,0,0,0,0,0,0,0,0,0,0,0,0,0,0,0,0,0,0,0,0,0,0,0,0,0,0,0,0,0,0,0,0,0,0,0,0,0,0,0,0,0,0,0,0,0,0,0,0,0,0,0,0,0,0,0,0,0,0,0,0,0,0,0,0,0,0,0,0,0,0],"sum_hessian":[1.2807617E3,5.8556165E2,6.9520013E2,5.2729755E2,5.8264076E1,1.3629082E2,5.589093E2,4.5414896E2,7.31486E1,4.010418E1,1.8159897E1,5.9438797E1,7.685202E1,9.821515E0,5.490878E2,5.4403378E1,1.8745218E1,3.3501354E1,6.602826E0,1.1713386E0,1.6988558E1,4.9660625E1,9.77817E0,2.307448E0,7.514067E0,1.9468145E1,5.296197E2,2.4046254E0,1.6340593E1,1.8064598E1,1.5436755E1,4.6491676E1,3.1689491E0,8.709042E0,1.0691283E0,6.388405E0,1.1256623E0,5.960345E0,1.3507801E1,1.1893708E0,5.284303E2,2.2048635E0,1.413573E1,6.6449857E0,1.1419613E1,1.2130095E1,3.306661E0,4.3283646E1,3.2080305E0,1.1960353E0,4.7643094E0,1.191231E1,1.5954916E0,1.0788472E0,1.1260165E0,2.462613E0,4.182372E0,8.982437E0,2.4371755E0,1.2429386E0,1.0887156E1,1.106893E0,2.199768E0,4.5045533E0,3.8779095E1,2.0199046E0,1.1881258E0,1.1710474E0,1.2915658E0,7.2387714E0,1.7436658E0,1.4248548E0,1.0123208E0,9.389501E0,1.4976548E0,1.794323E0,2.71023E0,3.7647938E1,1.1311564E0,1.663522E0,1.0467082E0,3.659591E1,1.0520272E0,3.4587234E1,2.0086756E0,1.0239469E0,3.3563286E1],"tree_param":{"num_deleted":"0","num_feature":"500","num_nodes":"87","size_leaf_vector":"1"}},{"base_weights":[8.075408E-3,9.288948E-1,-8.5351497E-1,1.1103941E0,-4.0850943E-1,4.182078E-1,-1.1852511E0,1.1990042E-1,5.921791E-1,3.4255434E-2,-8.8034517E-1,1.0895934E0,-4.0177336E-1,2.8094286E-2,-1.1983663E0,9.847159E-1,-7.0654213E-1,-1.5403247E-1,5.0354995E-2,-9.4533986E-1,9.232841E-3,1.0973837E-1,4.5841536E-3,-5.394104E-1,4.5622196E-2,-5.1071555E-3,-1.2000777E-1,1.0587548E0,-2.0822674E-1,2.56311E-2,-8.7979645E-2,-3.0706438E-1,3.7273653E-2,-9.643242E-2,-2.527667E-3,-6.4105034E-1,3.3037778E-2,1.095444E0,-1.0936765E-2,3.198909E-3,-2.6085217E-2,5.8281146E-2,-6.345461E-1,-7.403167E-1,3.3662993E-2,1.1063856E-1,3.7418634E-3,-4.2707136E-1,4.0435022E-1,-7.090918E-2,5.6036687E-3,3.607553E-2,-8.757897E-1,-4.5345232E-2,-9.899214E-4,5.1576024E-1,-1.2954983E-2,-3.3473894E-1,4.188226E-2,1.2668331E-2,-9.275821E-1,-1.5504238E-3,5.5942434E-1,-2.2833352E-4,-3.622728E-2,-9.733511E-1,8.451966E-3,3.438747E-4,6.0396027E-2,-4.6459544E-3,-9.8372795E-2],"categories":[],"categories_nodes":[],"categories_segments":[],"categories_sizes":[],"default_left":[0,0,0,0,0,0,0,0,0,0,0,0,0,0,0,0,0,0,0,0,0,0,0,0,0,0,0,0,0,0,0,0,0,0,0,0,0,0,0,0,0,0,0,0,0,0,0,0,0,0,0,0,0,0,0,0,0,0,0,0,0,0,0,0,0,0,0,0,0,0,0],"id":10,"left_children":[1,3,5,7,9,11,13,-1,15,17,19,21,23,-1,25,27,29,31,-1,33,-1,-1,-1,35,-1,-1,-1,37,39,-1,-1,41,-1,-1,-1,43,-1,45,-1,-1,-1,47,49,51,-1,-1,-1,53,55,-1,-1,57,59,-1,-1,61,-1,63,-1,-1,65,-1,67,-1,-1,69,-1,-1,-1,-1,-1],"loss_changes":[9.6592065E2,1.4738144E2,2.7032697E2,1.6816406E1,1.6519337E1,8.0090706E1,1.3010071E1,0E0,5.58029E1,5.1649475E0,3.2723198E0,1.3369751E-1,1.06351185E1,0E0,3.6676025E-1,9.072105E0,6.9360285E0,4.619604E0,0E0,3.932228E-1,0E0,0E0,0E0,7.796364E0,0E0,0E0,0E0,4.406067E0,2.4652165E-1,0E0,0E0,5.0224237E0,0E0,0E0,0E0,8.403761E0,0E0,4.366684E-1,0E0,0E0,0E0,6.352585E0,1.4963121E0,6.460991E0,0E0,0E0,0E0,1.3479066E-1,1.9299722E0,0E0,0E0,3.9970114E0,3.778366E0,0E0,0E0,5.404353E-1,0E0,1.2761426E-1,0E0,0E0,3.0868454E0,0E0,4.334216E-1,0E0,0E0,4.348755E-4,0E0,0E0,0E0,0E0,0E0],"parents":[2147483647,0,0,1,1,2,2,3,3,4,4,5,5,6,6,8,8,9,9,10,10,11,11,12,12,14,14,15,15,16,16,17,17,19,19,23,23,27,27,28,28,31,31,35,35,37,37,41,41,42,42,43,43,47,47,48,48,51,51,52,52,55,55,57,57,60,60,62,62,65,65],"right_children":[2,4,6,8,10,12,14,-1,16,18,20,22,24,-1,26,28,30,32,-1,34,-1,-1,-1,36,-1,-1,-1,38,40,-1,-1,42,-1,-1,-1,44,-1,46,-1,-1,-1,48,50,52,-1,-1,-1,54,56,-1,-1,58,60,-1,-1,62,-1,64,-1,-1,66,-1,68,-1,-1,70,-1,-1,-1,-1,-1],"split_conditions":[5.1232837E-2,9.976939E-1,2.5983177E-2,9.784312E-4,3.2594013E-5,9.973716E-1,6.661602E-3,1.1990042E-1,3.917845E-3,1.8540997E-4,6.411195E-1,2.2137519E-2,9.962609E-1,2.8094286E-2,2.8589866E-5,9.977692E-1,1.950868E-3,3.4450952E-2,5.0354995E-2,9.6468943E-1,9.232841E-3,1.0973837E-1,4.5841536E-3,1.4959885E-2,4.5622196E-2,-5.1071555E-3,-1.2000777E-1,8.955733E-1,6.0991663E-4,2.56311E-2,-8.7979645E-2,4.7795194E-8,3.7273653E-2,-9.643242E-2,-2.527667E-3,4.8916563E-3,3.3037778E-2,4.2001136E-2,-1.0936765E-2,3.198909E-3,-2.6085217E-2,1.2583172E-7,1.1604778E-3,3.1548755E-9,3.3662993E-2,1.1063856E-1,3.7418634E-3,1.1146707E-7,8.886363E-2,-7.090918E-2,5.6036687E-3,6.7045434E-8,2.0072948E-8,-4.5345232E-2,-9.899214E-4,1.0318337E-6,-1.2954983E-2,7.7610385E-10,4.188226E-2,1.2668331E-2,2.6609324E-2,-1.5504238E-3,3.5642206E-3,-2.2833352E-4,-3.622728E-2,2.063694E-7,8.451966E-3,3.438747E-4,6.0396027E-2,-4.6459544E-3,-9.8372795E-2],"split_indices":[488,0,244,471,493,499,105,0,1,179,13,237,498,0,28,363,214,46,0,1,0,0,0,116,0,0,0,181,33,0,0,488,0,0,0,24,0,491,0,0,0,308,64,33,0,0,0,309,34,0,0,231,337,0,0,180,0,35,0,0,285,0,32,0,0,421,0,0,0,0,0],"split_type":[0,0,0,0,0,0,0,0,0,0,0,0,0,0,0,0,0,0,0,0,0,0,0,0,0,0,0,0,0,0,0,0,0,0,0,0,0,0,0,0,0,0,0,0,0,0,0,0,0,0,0,0,0,0,0,0,0,0,0,0,0,0,0,0,0,0,0,0,0,0,0],"sum_hessian":[1.1974989E3,5.784755E2,6.190233E2,5.1084598E2,6.762958E1,1.2752911E2,4.914942E2,4.250322E2,8.581378E1,3.9673992E1,2.795559E1,6.831006E1,5.9219055E1,2.546965E0,4.8894724E2,6.775326E1,1.8060524E1,3.3108257E1,6.5657353E0,2.6467997E1,1.4875929E0,6.729395E1,1.0161062E0,5.4232388E1,4.986667E0,1.187646E0,4.8775958E2,6.485306E1,2.9002004E0,2.0231338E0,1.6037392E1,2.8887058E1,4.2211976E0,2.5461565E1,1.0064305E0,5.0912746E1,3.3196445E0,6.3481373E1,1.37168E0,1.225878E0,1.6743224E0,1.7539711E1,1.1347348E1,4.8423958E1,2.4887862E0,6.2379192E1,1.1021823E0,6.3264275E0,1.1213284E1,9.99988E0,1.3474681E0,8.284244E0,4.0139713E1,5.1322103E0,1.1942172E0,9.558459E0,1.6548241E0,4.8447957E0,3.4394479E0,1.2615609E0,3.8878155E1,1.2157329E0,8.342726E0,1.1988336E0,3.6459622E0,3.756239E1,1.3157665E0,1.4175988E0,6.9251275E0,1.0222684E0,3.654012E1],"tree_param":{"num_deleted":"0","num_feature":"500","num_nodes":"71","size_leaf_vector":"1"}},{"base_weights":[8.8790655E-3,9.487632E-1,-7.831529E-1,1.1009529E0,-2.6963055E-1,4.9290496E-1,-1.1138295E0,1.16983116E-1,5.652781E-1,3.5522968E-2,-7.344987E-1,-2.7718192E-1,1.0604037E0,-9.718924E-2,-1.1719449E0,9.9715255E-2,-5.495279E-1,-1.7502952E-1,4.2587754E-1,9.26119E-3,-8.089184E-2,-5.285999E-1,6.242397E-1,1.0681374E-1,4.2299516E-3,5.0315595E-1,-5.7726E-1,-5.1975837E-3,-1.1736186E-1,2.4641436E-2,-7.1892935E-1,1.568971E-1,-4.4694227E-1,-2.1043386E-2,6.0730804E-2,-6.457864E-1,3.5388455E-2,6.446114E-2,2.6799282E-3,6.44176E-1,-1.7304242E-2,1.903677E-2,-6.962002E-1,-8.186859E-2,1.0137246E-2,-4.2219084E-2,5.0672114E-1,-6.1612713E-1,2.5484169E-2,-7.3797095E-1,1.9560152E-1,6.715655E-2,3.4179424E-3,-7.417392E-2,-1.3026128E-3,-1.5716071E-3,5.482363E-1,3.0096916E-3,-6.9938146E-2,9.17447E-2,-8.3871585E-1,2.8222362E-2,-7.329259E-3,6.130972E-2,-6.855314E-4,-1.258827E-2,2.2169109E-1,-8.898136E-1,1.1946362E-2,2.3366269E-2,7.762467E-4,-8.711376E-2,-9.179728E-1,-2.0538425E-2,1.1593602E-2,-2.4539062E-3,-9.42905E-2],"categories":[],"categories_nodes":[],"categories_segments":[],"categories_sizes":[],"default_left":[0,0,0,0,0,0,0,0,0,0,0,0,0,0,0,0,0,0,0,0,0,0,0,0,0,0,0,0,0,0,0,0,0,0,0,0,0,0,0,0,0,0,0,0,0,0,0,0,0,0,0,0,0,0,0,0,0,0,0,0,0,0,0,0,0,0,0,0,0,0,0,0,0,0,0,0,0],"id":11,"left_children":[1,3,5,7,9,11,13,-1,15,17,19,21,23,25,27,-1,29,31,33,-1,-1,35,37,-1,-1,39,41,-1,-1,-1,43,45,47,-1,-1,49,-1,-1,-1,51,-1,-1,53,-1,-1,-1,55,57,-1,59,61,-1,-1,-1,-1,-1,63,-1,-1,65,67,-1,-1,-1,-1,-1,69,71,-1,-1,-1,73,75,-1,-1,-1,-1],"loss_changes":[8.461121E2,9.934338E1,2.657909E2,1.0507141E1,9.587298E0,6.1452538E1,2.798816E1,0E0,4.024806E1,4.7916036E0,2.3812838E0,1.7970543E1,1.7144775E-1,1.3730149E1,2.6239014E-1,0E0,5.359667E0,4.227259E0,3.6056545E0,0E0,0E0,8.079794E0,5.4876804E-2,0E0,0E0,3.2157245E0,3.6561575E0,0E0,0E0,0E0,2.8342924E0,7.2025704E0,4.4284077E0,0E0,0E0,5.5545273E0,0E0,0E0,0E0,1.10435486E-1,0E0,0E0,6.5785694E-1,0E0,0E0,0E0,5.226822E-1,1.4114933E0,0E0,4.9376106E0,5.1287323E-1,0E0,0E0,0E0,0E0,0E0,7.233429E-1,0E0,0E0,6.8666875E-1,3.288334E0,0E0,0E0,0E0,0E0,0E0,1.4249802E-2,2.0241165E-1,0E0,0E0,0E0,5.3952456E-1,6.9934464E-1,0E0,0E0,0E0,0E0],"parents":[2147483647,0,0,1,1,2,2,3,3,4,4,5,5,6,6,8,8,9,9,10,10,11,11,12,12,13,13,14,14,16,16,17,17,18,18,21,21,22,22,25,25,26,26,30,30,31,31,32,32,35,35,39,39,42,42,46,46,47,47,49,49,50,50,56,56,59,59,60,60,66,66,67,67,71,71,72,72],"right_children":[2,4,6,8,10,12,14,-1,16,18,20,22,24,26,28,-1,30,32,34,-1,-1,36,38,-1,-1,40,42,-1,-1,-1,44,46,48,-1,-1,50,-1,-1,-1,52,-1,-1,54,-1,-1,-1,56,58,-1,60,62,-1,-1,-1,-1,-1,64,-1,-1,66,68,-1,-1,-1,-1,-1,70,72,-1,-1,-1,74,76,-1,-1,-1,-1],"split_conditions":[1.0705071E-2,9.976939E-1,5.8763083E-3,1.0284473E-3,3.2594013E-5,7.003054E-2,1.1472981E-2,1.16983116E-1,1.279982E-3,1.1957843E-3,1.0248496E-5,2.3142733E-3,1.0078932E-2,5.1517314E-1,1.4995793E-2,9.9715255E-2,2.6843643E-3,5.1925117E-8,3.747951E-8,9.26119E-3,-8.089184E-2,8.785111E-3,6.4758083E-4,1.0681374E-1,4.2299516E-3,9.977692E-1,1.0911615E-6,-5.1975837E-3,-1.1736186E-1,2.4641436E-2,5.3592366E-1,1.1146707E-7,3.1275325E-4,-2.1043386E-2,6.0730804E-2,3.064857E-3,3.5388455E-2,6.446114E-2,2.6799282E-3,5.428385E-1,-1.7304242E-2,1.903677E-2,9.487891E-1,-8.186859E-2,1.0137246E-2,-4.2219084E-2,9.148737E-7,4.7795194E-8,2.5484169E-2,3.9745163E-10,2.348842E-1,6.715655E-2,3.4179424E-3,-7.417392E-2,-1.3026128E-3,-1.5716071E-3,1.6072758E-4,3.0096916E-3,-6.9938146E-2,4.434811E-8,4.696224E-3,2.8222362E-2,-7.329259E-3,6.130972E-2,-6.855314E-4,-1.258827E-2,5.005345E-10,4.0488035E-9,1.1946362E-2,2.3366269E-2,7.762467E-4,2.0801076E-9,2.4750946E-8,-2.0538425E-2,1.1593602E-2,-2.4539062E-3,-9.42905E-2],"split_indices":[493,0,257,472,493,459,69,0,79,65,281,100,302,499,444,0,221,482,482,0,0,317,278,0,0,363,13,0,0,0,227,309,254,0,0,38,0,0,0,478,0,0,484,0,0,0,178,488,0,11,2,0,0,0,0,0,69,0,0,209,232,0,0,0,0,0,10,100,0,0,0,53,296,0,0,0,0],"split_type":[0,0,0,0,0,0,0,0,0,0,0,0,0,0,0,0,0,0,0,0,0,0,0,0,0,0,0,0,0,0,0,0,0,0,0,0,0,0,0,0,0,0,0,0,0,0,0,0,0,0,0,0,0,0,0,0,0,0,0,0,0,0,0,0,0,0,0,0,0,0,0,0,0,0,0,0,0],"sum_hessian":[1.1166273E3,5.097459E2,6.0688135E2,4.5400058E2,5.5745354E1,1.2389053E2,4.829908E2,3.9178543E2,6.221513E1,3.9229664E1,1.6515694E1,5.4733612E1,6.915692E1,2.7561852E1,4.5542896E2,4.5603687E1,1.6611443E1,2.906727E1,1.0162392E1,1.1615493E0,1.5354144E1,4.603093E1,8.7026825E0,6.814782E1,1.0090972E0,1.2033132E1,1.552872E1,1.15788E0,4.542711E2,2.1172502E0,1.4494192E1,1.4993918E1,1.4073353E1,1.9000299E0,8.262362E0,4.300271E1,3.0282211E0,7.652204E0,1.0504782E0,1.0348527E1,1.6846051E0,1.2776386E0,1.42510805E1,1.2940235E1,1.5539572E0,4.867594E0,1.0126325E1,1.2323084E1,1.7502681E0,3.9864212E1,3.1384976E0,8.937874E0,1.4106526E0,1.2556819E1,1.6942623E0,1.2029154E0,8.923409E0,2.1351194E0,1.0187964E1,4.412997E0,3.5451214E1,1.9988635E0,1.1396343E0,7.0541778E0,1.8692319E0,1.7667898E0,2.646207E0,3.4333763E1,1.1174512E0,1.6323969E0,1.01381E0,2.5510218E0,3.1782742E1,1.5393983E0,1.0116235E0,1.4015417E0,3.03812E1],"tree_param":{"num_deleted":"0","num_feature":"500","num_nodes":"77","size_leaf_vector":"1"}},{"base_weights":[9.849441E-3,8.712906E-1,-8.030947E-1,1.0560238E0,-3.6672243E-1,3.9658254E-1,-1.1333145E0,1.1479006E-1,5.4193866E-1,3.5282195E-2,-8.1515193E-1,1.0296535E-1,-3.4552273E-1,2.6762852E-2,-1.147585E0,9.2472774E-1,-6.31966E-1,-1.432543E-1,4.727904E-2,-8.8165706E-1,9.283343E-3,-4.7494036E-1,4.1735243E-2,-3.7145063E-3,-1.1496103E-1,1.0106676E0,-2.2158033E-1,2.680538E-2,-8.198339E-2,-2.8878826E-1,3.48864E-1,-8.999141E-2,-3.0858943E-3,-5.7444453E-1,3.1229815E-2,1.0340067E0,-3.5272592E-3,4.2697242E-3,-2.834777E-2,4.63035E-2,-5.878766E-1,1.7152947E-3,3.722642E-2,-6.744208E-1,3.251997E-2,1.0449938E-1,3.3394892E-3,-4.0399334E-1,3.7278706E-1,-6.5688215E-2,4.8062294E-3,3.551062E-2,-8.0688953E-1,-4.268461E-2,-1.2457625E-3,4.8210666E-1,-1.2890774E-2,-3.5260256E-2,3.7313098E-1,1.2192741E-2,-8.5964704E-1,5.5100363E-2,1.9453716E-2,4.3017518E-2,-2.9645364E-3,-9.070194E-1,8.520894E-3,-1.4227447E-2,1.6309902E-2,-3.5833814E-3,-9.1906357E-1,1.0059127E-4,-9.480855E-2],"categories":[],"categories_nodes":[],"categories_segments":[],"categories_sizes":[],"default_left":[0,0,0,0,0,0,0,0,0,0,0,0,0,0,0,0,0,0,0,0,0,0,0,0,0,0,0,0,0,0,0,0,0,0,0,0,0,0,0,0,0,0,0,0,0,0,0,0,0,0,0,0,0,0,0,0,0,0,0,0,0,0,0,0,0,0,0,0,0,0,0,0,0],"id":12,"left_children":[1,3,5,7,9,11,13,-1,15,17,19,-1,21,-1,23,25,27,29,-1,31,-1,33,-1,-1,-1,35,37,-1,-1,39,41,-1,-1,43,-1,45,-1,-1,-1,47,49,-1,-1,51,-1,-1,-1,53,55,-1,-1,57,59,-1,-1,61,-1,-1,63,-1,65,-1,67,-1,-1,69,-1,-1,-1,-1,71,-1,-1],"loss_changes":[7.4265045E2,1.21613525E2,2.2065985E2,1.5059937E1,1.3676002E1,6.237002E1,1.1677368E1,0E0,4.5053608E1,4.4849315E0,2.9634857E0,0E0,8.411133E0,0E0,5.354614E-1,9.121632E0,6.8299685E0,4.0365553E0,0E0,2.5120354E-1,0E0,6.5213795E0,0E0,0E0,0E0,1.9950638E0,3.3490348E-1,0E0,0E0,4.0918674E0,4.622674E-2,0E0,0E0,7.3289204E0,0E0,3.7286377E-1,0E0,0E0,0E0,5.5113006E0,1.2314672E0,0E0,0E0,5.4252663E0,0E0,0E0,0E0,9.2223406E-2,1.772897E0,0E0,0E0,3.6967044E0,3.3253174E0,0E0,0E0,5.0952435E-1,0E0,0E0,4.6243E-1,0E0,2.7967033E0,0E0,5.311244E-1,0E0,0E0,1.314621E-1,0E0,0E0,0E0,0E0,1.1553459E0,0E0,0E0],"parents":[2147483647,0,0,1,1,2,2,3,3,4,4,5,5,6,6,8,8,9,9,10,10,12,12,14,14,15,15,16,16,17,17,19,19,21,21,25,25,26,26,29,29,30,30,33,33,35,35,39,39,40,40,43,43,47,47,48,48,51,51,52,52,55,55,58,58,60,60,62,62,65,65,70,70],"right_children":[2,4,6,8,10,12,14,-1,16,18,20,-1,22,-1,24,26,28,30,-1,32,-1,34,-1,-1,-1,36,38,-1,-1,40,42,-1,-1,44,-1,46,-1,-1,-1,48,50,-1,-1,52,-1,-1,-1,54,56,-1,-1,58,60,-1,-1,62,-1,-1,64,-1,66,-1,68,-1,-1,70,-1,-1,-1,-1,72,-1,-1],"split_conditions":[5.1232837E-2,9.976939E-1,2.5983177E-2,9.784312E-4,3.2594013E-5,9.973716E-1,6.661602E-3,1.1479006E-1,3.232561E-3,1.8540997E-4,6.411195E-1,1.0296535E-1,9.962609E-1,2.6762852E-2,6.1253803E-7,9.977692E-1,2.6843643E-3,3.4450952E-2,4.727904E-2,1.1437571E-1,9.283343E-3,1.4959885E-2,4.1735243E-2,-3.7145063E-3,-1.1496103E-1,8.955733E-1,5.5646687E-4,2.680538E-2,-8.198339E-2,4.7795194E-8,9.908827E-1,-8.999141E-2,-3.0858943E-3,4.8916563E-3,3.1229815E-2,1.0786409E-1,-3.5272592E-3,4.2697242E-3,-2.834777E-2,1.2583172E-7,1.1604778E-3,1.7152947E-3,3.722642E-2,3.1548755E-9,3.251997E-2,1.0449938E-1,3.3394892E-3,1.1146707E-7,8.886363E-2,-6.5688215E-2,4.8062294E-3,1.5023208E-8,2.0072948E-8,-4.268461E-2,-1.2457625E-3,4.5804217E-8,-1.2890774E-2,-3.5260256E-2,3.6602226E-9,1.2192741E-2,2.6609324E-2,5.5100363E-2,9.191227E-8,4.3017518E-2,-2.9645364E-3,8.333467E-9,8.520894E-3,-1.4227447E-2,1.6309902E-2,-3.5833814E-3,4.5375252E-8,1.0059127E-4,-9.480855E-2],"split_indices":[488,0,244,471,493,499,105,0,11,179,13,0,498,0,25,363,221,46,0,425,0,116,0,0,0,181,32,0,0,488,1,0,0,24,0,499,0,0,0,308,64,0,0,33,0,0,0,309,34,0,0,216,337,0,0,428,0,0,47,0,285,0,473,0,0,97,0,0,0,0,301,0,0],"split_type":[0,0,0,0,0,0,0,0,0,0,0,0,0,0,0,0,0,0,0,0,0,0,0,0,0,0,0,0,0,0,0,0,0,0,0,0,0,0,0,0,0,0,0,0,0,0,0,0,0,0,0,0,0,0,0,0,0,0,0,0,0,0,0,0,0,0,0,0,0,0,0,0,0],"sum_hessian":[1.0404775E3,5.0482205E2,5.3565546E2,4.4055377E2,6.4268295E1,1.1518451E2,4.2047098E2,3.632967E2,7.725706E1,3.874641E1,2.5521883E1,6.0067616E1,5.5116894E1,2.4496403E0,4.1802133E2,5.986032E1,1.7396734E1,3.229378E1,6.452632E0,2.4050291E1,1.4715923E0,5.034968E1,4.7672114E0,1.1130788E0,4.1690826E2,5.6786274E1,3.0740447E0,2.2671711E0,1.5129563E1,2.8111969E1,4.1818123E0,2.2979876E1,1.0704155E0,4.7099514E1,3.2501686E0,5.565841E1,1.1278667E0,1.1719989E0,1.902046E0,1.7244013E1,1.0867954E1,1.417548E0,2.764264E0,4.464198E1,2.4575324E0,5.4615166E1,1.043242E0,6.249886E0,1.0994127E1,9.507021E0,1.3609332E0,8.170996E0,3.6470985E1,5.053109E0,1.1967769E0,9.347698E0,1.6464294E0,3.5948076E0,4.5761876E0,1.2555537E0,3.521543E1,6.473961E0,2.873737E0,3.4126184E0,1.1635691E0,3.391546E1,1.2999732E0,1.3966739E0,1.4770633E0,1.00457E0,3.291089E1,1.3015571E0,3.1609331E1],"tree_param":{"num_deleted":"0","num_feature":"500","num_nodes":"73","size_leaf_vector":"1"}},{"base_weights":[1.0792639E-2,8.945693E-1,-7.37038E-1,1.052253E0,-2.3871219E-1,4.678818E-1,-1.0654738E0,1.1256098E-1,5.223887E-1,1.0795224E-1,-5.7266444E-1,-2.2350603E-1,1.008677E-1,-7.8599006E-2,-1.1274956E0,9.444051E-2,-4.9213213E-1,-1.7368843E-1,5.0713927E-1,-6.5562356E-1,1.4146807E-2,-4.5952556E-1,5.8784E-1,4.654021E-1,-5.238459E-1,-4.8071556E-3,-1.1293488E-1,2.3307672E-2,-6.483397E-1,-4.1667387E-1,5.469537E-2,-1.2045342E-4,5.4913975E-2,6.1879754E-3,-7.028162E-1,-5.7511747E-1,3.1550203E-2,6.0609866E-2,2.5589357E-3,6.032475E-1,-1.662879E-2,1.8393697E-2,-6.4143044E-1,-7.425157E-1,7.3806862E-3,6.9502665E-4,-4.5372155E-2,3.3866832E-1,-2.1467343E-1,-3.7519782E-4,-7.3960227E-1,-6.66775E-1,1.9348426E-1,6.2681444E-2,3.2819423E-3,-6.84187E-2,-9.566583E-4,-3.0567383E-3,-7.752281E-2,3.8840973E-1,-3.2090403E-3,1.6129244E-2,-3.6399046E-1,-7.553934E-2,-2.816512E-3,5.7397828E-2,-7.8295255E-1,2.7270168E-2,-6.6446154E-3,-2.0264313E-3,4.3936267E-2,-4.2731863E-2,4.688473E-3,-2.3730317E-2,2.7725127E-1,-8.184173E-1,4.6970914E-3,3.034089E-2,-3.151581E-4,4.526522E-4,-8.513739E-1,-8.718266E-2,-1.8364763E-3],"categories":[],"categories_nodes":[],"categories_segments":[],"categories_sizes":[],"default_left":[0,0,0,0,0,0,0,0,0,0,0,0,0,0,0,0,0,0,0,0,0,0,0,0,0,0,0,0,0,0,0,0,0,0,0,0,0,0,0,0,0,0,0,0,0,0,0,0,0,0,0,0,0,0,0,0,0,0,0,0,0,0,0,0,0,0,0,0,0,0,0,0,0,0,0,0,0,0,0,0,0,0,0],"id":13,"left_children":[1,3,5,7,9,11,13,-1,15,17,19,21,-1,23,25,-1,27,29,31,33,-1,35,37,39,41,-1,-1,-1,43,45,47,-1,-1,-1,49,51,-1,-1,-1,53,-1,-1,55,57,-1,-1,-1,59,61,-1,63,65,67,-1,-1,-1,-1,-1,-1,69,-1,-1,71,-1,-1,73,75,-1,-1,-1,-1,-1,-1,-1,77,79,-1,-1,-1,-1,81,-1,-1],"loss_changes":[6.527694E2,8.33978E1,2.1673038E2,9.636444E0,7.9623394E0,4.770415E1,2.5035736E1,0E0,3.3421524E1,5.3262515E0,2.9357052E0,1.4485031E1,0E0,1.110724E1,2.5271606E-1,0E0,4.492453E0,1.9278121E0,4.103117E-1,1.5233316E0,0E0,6.5878515E0,3.2300472E-2,2.8669543E0,3.2094102E0,0E0,0E0,0E0,2.200489E0,2.8267598E-1,2.6110864E0,0E0,0E0,0E0,7.6866055E-1,4.8060894E0,0E0,0E0,0E0,5.9536457E-2,0E0,0E0,5.597353E-1,2.84688E-1,0E0,0E0,0E0,4.1731203E-1,1.6402729E0,0E0,1.1720276E-1,4.3902073E0,4.502929E-1,0E0,0E0,0E0,0E0,0E0,0E0,3.962922E-1,0E0,0E0,6.2963223E-1,0E0,0E0,1.6811459E0,1.5925808E0,0E0,0E0,0E0,0E0,0E0,0E0,0E0,1.09730005E-1,1.1209068E0,0E0,0E0,0E0,0E0,4.9454117E-1,0E0,0E0],"parents":[2147483647,0,0,1,1,2,2,3,3,4,4,5,5,6,6,8,8,9,9,10,10,11,11,13,13,14,14,16,16,17,17,18,18,19,19,21,21,22,22,23,23,24,24,28,28,29,29,30,30,34,34,35,35,39,39,42,42,43,43,47,47,48,48,50,50,51,51,52,52,59,59,62,62,65,65,66,66,74,74,75,75,80,80],"right_children":[2,4,6,8,10,12,14,-1,16,18,20,22,-1,24,26,-1,28,30,32,34,-1,36,38,40,42,-1,-1,-1,44,46,48,-1,-1,-1,50,52,-1,-1,-1,54,-1,-1,56,58,-1,-1,-1,60,62,-1,64,66,68,-1,-1,-1,-1,-1,-1,70,-1,-1,72,-1,-1,74,76,-1,-1,-1,-1,-1,-1,-1,78,80,-1,-1,-1,-1,82,-1,-1],"split_conditions":[1.0705071E-2,9.976939E-1,5.8763083E-3,9.784312E-4,5.061989E-7,8.550139E-2,1.1472981E-2,1.1256098E-1,1.1258584E-3,4.216535E-6,5.5912226E-1,2.3142733E-3,1.008677E-1,5.1517314E-1,1.4995793E-2,9.444051E-2,2.6843643E-3,2.7663133E-5,3.8418232E-8,7.013066E-7,1.4146807E-2,8.785111E-3,6.4758083E-4,9.977692E-1,1.0911615E-6,-4.8071556E-3,-1.1293488E-1,2.3307672E-2,4.5090744E-1,1.5512757E-6,6.9577145E-5,-1.2045342E-4,5.4913975E-2,6.1879754E-3,5.8947796E-1,3.064857E-3,3.1550203E-2,6.0609866E-2,2.5589357E-3,5.428385E-1,-1.662879E-2,1.8393697E-2,9.487891E-1,7.7183545E-4,7.3806862E-3,6.9502665E-4,-4.5372155E-2,8.8800175E-7,8.505396E-9,-3.7519782E-4,8.645779E-1,1.6108207E-9,2.348842E-1,6.2681444E-2,3.2819423E-3,-6.84187E-2,-9.566583E-4,-3.0567383E-3,-7.752281E-2,1.8543952E-8,-3.2090403E-3,1.6129244E-2,5.3528704E-2,-7.553934E-2,-2.816512E-3,1.0056851E-8,3.5897838E-3,2.7270168E-2,-6.6446154E-3,-2.0264313E-3,4.3936267E-2,-4.2731863E-2,4.688473E-3,-2.3730317E-2,9.846082E-2,4.269853E-9,4.6970914E-3,3.034089E-2,-3.151581E-4,4.526522E-4,6.4298764E-2,-8.718266E-2,-1.8364763E-3],"split_indices":[493,0,257,471,487,461,69,0,69,154,15,100,0,499,444,0,221,77,360,467,0,317,278,363,13,0,0,0,231,68,79,0,0,0,2,38,0,0,0,478,0,0,484,0,0,0,0,207,428,0,3,29,2,0,0,0,0,0,0,221,0,0,43,0,0,219,198,0,0,0,0,0,0,0,471,99,0,0,0,0,461,0,0],"split_type":[0,0,0,0,0,0,0,0,0,0,0,0,0,0,0,0,0,0,0,0,0,0,0,0,0,0,0,0,0,0,0,0,0,0,0,0,0,0,0,0,0,0,0,0,0,0,0,0,0,0,0,0,0,0,0,0,0,0,0,0,0,0,0,0,0,0,0,0,0,0,0,0,0,0,0,0,0,0,0,0,0,0,0],"sum_hessian":[9.6769885E2,4.426356E2,5.2506323E2,3.8919797E2,5.343764E1,1.1155603E2,4.135072E2,3.3199213E2,5.7205833E1,2.9540298E1,2.3897343E1,5.1536057E1,6.0019974E1,2.579158E1,3.877156E2,4.088837E1,1.6317463E1,2.0632374E1,8.907926E0,2.2144203E1,1.75314E0,4.328172E1,8.254339E0,1.1404692E1,1.4386888E1,1.1262168E0,3.865894E2,2.0197258E0,1.4297737E1,6.0020866E0,1.4630286E1,1.4211032E0,7.4868226E0,1.1745492E0,2.0969654E1,3.9908882E1,3.3728364E0,7.239381E0,1.0149585E0,9.731396E0,1.6732959E0,1.2456896E0,1.3141198E1,1.239874E1,1.898997E0,1.1360303E0,4.8660564E0,5.8696957E0,8.760591E0,1.5991992E0,1.9370455E1,3.684041E1,3.0684721E0,8.3960285E0,1.3353677E0,1.1532734E1,1.6084638E0,1.3944461E0,1.1004293E1,4.7556005E0,1.114095E0,2.2623072E0,6.498284E0,1.8345406E1,1.0250483E0,5.7926173E0,3.1047792E1,1.9751757E0,1.0932964E0,1.1948781E0,3.5607224E0,5.2837014E0,1.2145823E0,2.135886E0,3.6567314E0,2.9908371E1,1.13942E0,2.5942593E0,1.0624721E0,1.4837933E0,2.842458E1,2.728858E1,1.135999E0],"tree_param":{"num_deleted":"0","num_feature":"500","num_nodes":"83","size_leaf_vector":"1"}},{"base_weights":[1.1980051E-2,8.214788E-1,-7.5954163E-1,1.010969E0,-3.2666576E-1,3.770266E-1,-1.091368E0,1.1080183E-1,5.008272E-1,3.675937E-2,-7.694991E-1,9.7702724E-1,-2.9696435E-1,2.5553783E-2,-1.107071E0,8.638544E-1,-6.1912006E-1,-1.9341794E-1,3.4931603E-1,8.4231105E-3,-8.2614295E-2,9.84868E-2,4.524388E-3,-4.1868013E-1,3.8289472E-2,-3.0001812E-3,-1.10934354E-1,9.452368E-1,-2.0025732E-1,2.3050455E-2,-7.84896E-2,-2.922929E-1,2.4698693E-2,-6.2699E-2,5.1932454E-1,-5.143312E-1,3.1366646E-2,9.8572236E-1,-1.0151344E-2,2.677702E-3,-2.4660554E-2,3.256404E-2,-5.227842E-1,-2.3264295E-1,2.0778192E-2,4.7795605E-4,5.5656385E-2,-6.1978734E-1,3.0575348E-2,9.9706076E-2,3.3541569E-3,-3.9955575E-2,3.7311617E-1,-5.9478056E-1,7.1326033E-3,1.0872148E-2,-3.449399E-2,3.5045084E-2,-7.504277E-1,4.845175E-1,-1.0612547E-2,1.0162378E-3,-6.396268E-2,-3.4343474E-2,3.641667E-1,-7.96619E-1,8.570206E-3,3.160862E-3,5.073827E-2,4.142298E-2,-2.23136E-3,-8.471151E-1,4.359528E-3,-8.5943663E-1,-3.4700676E-3,-3.763146E-3,-8.729423E-1,-8.884736E-2,-4.443001E-3],"categories":[],"categories_nodes":[],"categories_segments":[],"categories_sizes":[],"default_left":[0,0,0,0,0,0,0,0,0,0,0,0,0,0,0,0,0,0,0,0,0,0,0,0,0,0,0,0,0,0,0,0,0,0,0,0,0,0,0,0,0,0,0,0,0,0,0,0,0,0,0,0,0,0,0,0,0,0,0,0,0,0,0,0,0,0,0,0,0,0,0,0,0,0,0,0,0,0,0],"id":14,"left_children":[1,3,5,7,9,11,13,-1,15,17,19,21,23,-1,25,27,29,31,33,-1,-1,-1,-1,35,-1,-1,-1,37,39,-1,-1,41,-1,43,45,47,-1,49,-1,-1,-1,51,53,55,-1,-1,-1,57,-1,-1,-1,-1,59,61,-1,-1,-1,63,65,67,-1,-1,-1,-1,69,71,-1,-1,-1,-1,-1,73,-1,75,-1,-1,77,-1,-1],"loss_changes":[5.746555E2,1.0097418E2,1.8182095E2,1.3649445E1,1.1734253E1,4.8966663E1,1.0597137E1,0E0,3.7966972E1,4.173917E0,2.2689362E0,1.1711121E-2,6.6770525E0,0E0,5.603943E-1,7.5014496E0,5.395877E0,2.2215824E0,2.0197551E0,0E0,0E0,0E0,0E0,5.5909176E0,0E0,0E0,0E0,3.6243095E0,2.0128065E-1,0E0,0E0,2.6190722E0,0E0,1.2182803E0,3.221078E-1,6.566106E0,0E0,3.1916046E-1,0E0,0E0,0E0,4.8736215E0,1.2676234E0,9.3225944E-1,0E0,0E0,0E0,4.6396904E0,0E0,0E0,0E0,0E0,1.4766202E0,5.7115555E-1,0E0,0E0,0E0,3.500705E0,2.347248E0,9.703875E-3,0E0,0E0,0E0,0E0,3.732711E-1,2.1433296E0,0E0,0E0,0E0,0E0,0E0,1.0149574E-1,0E0,1.0341644E-1,0E0,0E0,9.210777E-2,0E0,0E0],"parents":[2147483647,0,0,1,1,2,2,3,3,4,4,5,5,6,6,8,8,9,9,10,10,11,11,12,12,14,14,15,15,16,16,17,17,18,18,23,23,27,27,28,28,31,31,33,33,34,34,35,35,37,37,41,41,42,42,43,43,47,47,52,52,53,53,57,57,58,58,59,59,64,64,65,65,71,71,73,73,76,76],"right_children":[2,4,6,8,10,12,14,-1,16,18,20,22,24,-1,26,28,30,32,34,-1,-1,-1,-1,36,-1,-1,-1,38,40,-1,-1,42,-1,44,46,48,-1,50,-1,-1,-1,52,54,56,-1,-1,-1,58,-1,-1,-1,-1,60,62,-1,-1,-1,64,66,68,-1,-1,-1,-1,70,72,-1,-1,-1,-1,-1,74,-1,76,-1,-1,78,-1,-1],"split_conditions":[5.1232837E-2,9.976939E-1,2.5983177E-2,9.88274E-4,4.846205E-5,9.973716E-1,6.661602E-3,1.1080183E-1,3.917845E-3,5.142576E-5,1.42571835E-5,3.1587105E-2,9.962609E-1,2.5553783E-2,6.1253803E-7,9.977692E-1,1.950868E-3,9.4297063E-1,5.7581615E-2,8.4231105E-3,-8.2614295E-2,9.84868E-2,4.524388E-3,2.4408089E-2,3.8289472E-2,-3.0001812E-3,-1.10934354E-1,8.955733E-1,6.0991663E-4,2.3050455E-2,-7.84896E-2,2.7399487E-8,2.4698693E-2,2.8531775E-3,1.039078E-8,4.0507466E-3,3.1366646E-2,3.4359936E-2,-1.0151344E-2,2.677702E-3,-2.4660554E-2,1.1146707E-7,1.4079527E-5,1.2340823E-7,2.0778192E-2,4.7795605E-4,5.5656385E-2,3.1548755E-9,3.0575348E-2,9.9706076E-2,3.3541569E-3,-3.9955575E-2,8.4794105E-5,4.308075E-8,7.1326033E-3,1.0872148E-2,-3.449399E-2,1.5023208E-8,2.6609324E-2,9.148737E-7,-1.0612547E-2,1.0162378E-3,-6.396268E-2,-3.4343474E-2,3.6602226E-9,4.198044E-3,8.570206E-3,3.160862E-3,5.073827E-2,4.142298E-2,-2.23136E-3,7.568307E-1,4.359528E-3,6.333484E-7,-3.4700676E-3,-3.763146E-3,3.6152703E-4,-8.884736E-2,-4.443001E-3],"split_indices":[488,0,244,470,491,499,105,0,1,114,274,264,498,0,25,363,214,6,20,0,0,0,0,156,0,0,0,181,33,0,0,486,0,182,490,32,0,498,0,0,0,309,307,491,0,0,0,33,0,0,0,0,78,454,0,0,0,216,285,178,0,0,0,0,47,87,0,0,0,0,0,488,0,428,0,0,5,0,0],"split_type":[0,0,0,0,0,0,0,0,0,0,0,0,0,0,0,0,0,0,0,0,0,0,0,0,0,0,0,0,0,0,0,0,0,0,0,0,0,0,0,0,0,0,0,0,0,0,0,0,0,0,0,0,0,0,0,0,0,0,0,0,0,0,0,0,0,0,0,0,0,0,0,0,0,0,0,0,0,0,0],"sum_hessian":[9.00127E2,4.3893674E2,4.6119028E2,3.7778217E2,6.11546E1,1.0391148E2,3.572788E2,3.0755347E2,7.022867E1,3.8625374E1,2.2529224E1,5.2594566E1,5.1316917E1,2.3572648E0,3.5492154E2,5.476381E1,1.546486E1,2.443924E1,1.4186134E1,1.0987448E0,2.143048E1,5.1590736E1,1.0038321E0,4.678298E1,4.5339365E0,1.0463083E0,3.538752E2,5.191084E1,2.85297E0,1.887349E0,1.3577511E1,2.2704872E1,1.7343673E0,5.9874883E0,8.198647E0,4.4011612E1,2.771371E0,5.0539143E1,1.371698E0,1.1995718E0,1.653398E0,1.29874325E1,9.717441E0,4.536258E0,1.4512298E0,1.3148253E0,6.8838215E0,4.1161037E1,2.8505723E0,4.9478622E1,1.0605205E0,4.9605293E0,8.026903E0,8.6570635E0,1.060377E0,1.201695E0,3.3345635E0,8.062972E0,3.309807E1,6.423622E0,1.6032804E0,1.1312518E0,7.525811E0,3.5479972E0,4.5149755E0,3.1813122E1,1.284945E0,1.453664E0,4.9699583E0,3.361531E0,1.1534443E0,2.9932098E1,1.8810234E0,2.8914762E1,1.0173349E0,1.0797005E0,2.7835062E1,2.6612465E1,1.2225978E0],"tree_param":{"num_deleted":"0","num_feature":"500","num_nodes":"79","size_leaf_vector":"1"}},{"base_weights":[1.2890933E-2,8.472761E-1,-7.0287454E-1,1.0436369E0,-3.8695872E-1,5.149125E-1,-1.0559283E0,1.0731304E0,-3.552484E-2,1.6959442E-1,-6.3247013E-1,9.2279077E-1,-8.3396815E-2,2.9161605E-1,-1.083183E0,1.0893786E0,-2.5669089E-2,-1.714479E-1,4.605354E-1,1.9874854E-2,-7.107208E-1,9.685306E-2,-1.9797909E-3,-2.3128547E-1,2.661738E-1,-7.023193E-3,3.725883E-2,8.903733E-3,-1.0923784E0,1.09366E-1,7.678492E-2,2.5895223E-2,-2.9450515E-2,-4.6073288E-1,3.1179115E-2,5.3242084E-2,-4.025472E-3,-7.7806187E-1,1.0477969E-1,-1.6151838E-2,1.5931157E-2,1.4946546E-1,-4.2146957E-1,-2.057922E-1,5.54486E-2,-6.339825E-2,-1.0978774E0,1.14670405E-2,-3.1078723E-3,-5.082336E-2,2.3187974E-3,-8.2446706E-1,9.53884E-3,1.2318972E-2,-8.3121145E-4,-2.998958E-1,4.405501E-2,-6.098591E-1,1.8611245E-1,-3.246327E-2,7.460061E-2,8.243847E-3,-1.486404E-2,-3.0085477E-3,-1.1001032E-1,3.2743723E-3,-8.60043E-2,4.1442895E-3,-3.6923293E-2,9.1953715E-3,-6.779499E-1,3.661792E-2,-1.8547777E-2,1.5283956E-2,-6.604099E-3,-7.308504E-2,4.708891E-3],"categories":[],"categories_nodes":[],"categories_segments":[],"categories_sizes":[],"default_left":[0,0,0,0,0,0,0,0,0,0,0,0,0,0,0,0,0,0,0,0,0,0,0,0,0,0,0,0,0,0,0,0,0,0,0,0,0,0,0,0,0,0,0,0,0,0,0,0,0,0,0,0,0,0,0,0,0,0,0,0,0,0,0,0,0,0,0,0,0,0,0,0,0,0,0,0,0],"id":15,"left_children":[1,3,5,7,9,11,13,15,-1,17,19,21,23,25,27,29,31,33,35,-1,37,-1,39,41,43,-1,-1,-1,45,-1,47,-1,-1,49,-1,-1,-1,51,53,-1,-1,55,57,59,-1,61,63,-1,-1,-1,-1,65,-1,-1,-1,67,-1,69,71,-1,73,-1,-1,-1,-1,-1,-1,-1,-1,-1,75,-1,-1,-1,-1,-1,-1],"loss_changes":[5.1125015E2,9.981711E1,2.0358702E2,1.7990936E1,9.481389E0,2.7688242E1,1.6401276E1,6.3329163E0,0E0,3.4410896E0,4.3275776E0,2.8286514E0,3.4013789E0,7.019594E-1,4.8049927E0,6.097107E-1,1.8882133E0,4.17498E0,8.311198E-1,0E0,3.1846867E0,0E0,5.9466517E-1,3.759399E0,3.95358E0,0E0,0E0,0E0,1.3043823E0,0E0,8.534098E-2,0E0,0E0,4.922948E-1,0E0,0E0,0E0,2.449976E0,3.5440966E-2,0E0,0E0,4.1698055E0,4.7335687E0,7.463816E-1,0E0,2.7783206E-1,5.032654E-1,0E0,0E0,0E0,0E0,1.5017052E0,0E0,0E0,0E0,4.9646378E-1,0E0,1.8819218E0,1.6897187E0,0E0,2.3997395E-1,0E0,0E0,0E0,0E0,0E0,0E0,0E0,0E0,0E0,1.3107414E0,0E0,0E0,0E0,0E0,0E0,0E0],"parents":[2147483647,0,0,1,1,2,2,3,3,4,4,5,5,6,6,7,7,9,9,10,10,11,11,12,12,13,13,14,14,15,15,16,16,17,17,18,18,20,20,22,22,23,23,24,24,28,28,30,30,33,33,37,37,38,38,41,41,42,42,43,43,45,45,46,46,51,51,55,55,57,57,58,58,60,60,70,70],"right_children":[2,4,6,8,10,12,14,16,-1,18,20,22,24,26,28,30,32,34,36,-1,38,-1,40,42,44,-1,-1,-1,46,-1,48,-1,-1,50,-1,-1,-1,52,54,-1,-1,56,58,60,-1,62,64,-1,-1,-1,-1,66,-1,-1,-1,68,-1,70,72,-1,74,-1,-1,-1,-1,-1,-1,-1,-1,-1,76,-1,-1,-1,-1,-1,-1],"split_conditions":[6.595339E-4,9.973716E-1,1.6649155E-3,8.700993E-3,2.6541283E-9,9.976939E-1,1.0085398E-3,9.977692E-1,-3.552484E-2,4.72558E-8,6.273647E-8,1.1662552E-3,6.3873845E-1,2.8147402E-3,1.680347E-3,9.950671E-1,4.4116616E-4,2.2791767E-7,1.7863234E-8,1.9874854E-2,5.2955743E-2,9.685306E-2,1.1495535E-3,2.8906078E-8,2.8942473E-9,-7.023193E-3,3.725883E-2,8.903733E-3,4.812317E-5,1.09366E-1,4.6136464E-9,2.5895223E-2,-2.9450515E-2,7.2948074E-9,3.1179115E-2,5.3242084E-2,-4.025472E-3,9.9816686E-1,2.5919016E-2,-1.6151838E-2,1.5931157E-2,1.2583172E-7,3.407631E-4,1.3151224E-7,5.54486E-2,4.5009176E-3,1.3832968E-4,1.14670405E-2,-3.1078723E-3,-5.082336E-2,2.3187974E-3,2.9985014E-8,9.53884E-3,1.2318972E-2,-8.3121145E-4,1.7763735E-8,4.405501E-2,8.483796E-9,2.0881127E-4,-3.246327E-2,1.5953059E-6,8.243847E-3,-1.486404E-2,-3.0085477E-3,-1.1001032E-1,3.2743723E-3,-8.60043E-2,4.1442895E-3,-3.6923293E-2,9.1953715E-3,1.2160639E-2,3.661792E-2,-1.8547777E-2,1.5283956E-2,-6.604099E-3,-7.308504E-2,4.708891E-3],"split_indices":[5,499,336,18,8,0,468,363,0,229,287,347,10,323,265,403,34,399,29,0,125,0,358,488,499,0,0,0,21,0,1,0,0,55,0,0,0,498,74,0,0,308,226,276,0,6,37,0,0,0,0,99,0,0,0,340,0,429,412,0,201,0,0,0,0,0,0,0,0,0,87,0,0,0,0,0,0],"split_type":[0,0,0,0,0,0,0,0,0,0,0,0,0,0,0,0,0,0,0,0,0,0,0,0,0,0,0,0,0,0,0,0,0,0,0,0,0,0,0,0,0,0,0,0,0,0,0,0,0,0,0,0,0,0,0,0,0,0,0,0,0,0,0,0,0,0,0,0,0,0,0,0,0,0,0,0,0],"sum_hessian":[8.360725E2,3.8519916E2,4.5087335E2,3.3365973E2,5.1539406E1,1.00305504E2,3.5056784E2,3.2905087E2,4.6088758E0,1.6722696E1,3.4816708E1,5.6419804E1,4.3885704E1,5.026923E0,3.4554092E2,3.2434048E2,4.7103686E0,9.589254E0,7.1334424E0,1.6707008E0,3.3146008E1,5.330986E1,3.109944E0,3.3216797E1,1.0668905E1,1.1617447E0,3.8651786E0,2.013613E0,3.4352728E2,3.221777E2,2.1628022E0,2.4665947E0,2.2437737E0,6.289726E0,3.2995286E0,5.6856823E0,1.4477605E0,3.1041777E1,2.1042306E0,1.5563915E0,1.5535526E0,1.1778036E1,2.143876E1,5.1312475E0,5.5376577E0,2.492139E0,3.4103516E2,1.1335926E0,1.0292095E0,5.2700186E0,1.0197068E0,3.000828E1,1.0334961E0,1.0417511E0,1.0624794E0,4.5111923E0,7.266844E0,1.6336056E1,5.102706E0,2.4956987E0,2.6355488E0,1.0406495E0,1.4514894E0,1.0113276E0,3.4002383E2,1.227499E0,2.878078E1,1.4408821E0,3.07031E0,1.1348253E0,1.520123E1,3.5352144E0,1.5674917E0,1.1361828E0,1.499366E0,1.4092829E1,1.1084015E0],"tree_param":{"num_deleted":"0","num_feature":"500","num_nodes":"77","size_leaf_vector":"1"}},{"base_weights":[1.356654E-2,8.256061E-1,-6.826667E-1,1.0227977E0,-3.616308E-1,4.9354035E-1,-1.0363332E0,1.0534854E0,-3.471866E-2,1.6584927E-1,-6.015989E-1,8.974674E-1,-7.601286E-2,2.843438E-1,-1.0648929E0,1.0706317E0,-2.5568752E-2,-1.6436993E-1,4.452316E-1,1.9595085E-2,-6.80783E-1,9.4440036E-2,-1.9434703E-3,-2.1865422E-1,2.5603566E-1,-6.951015E-3,3.6458965E-2,8.757002E-3,-1.0746875E0,1.0751348E0,7.6050624E-2,2.5462164E-2,-2.892725E-2,-4.473308E-1,3.0486709E-2,5.155912E-2,-3.9753686E-3,-7.489031E-1,1.0381712E-1,-1.5936738E-2,1.574165E-2,1.4043719E-1,-3.996729E-1,-2.0130773E-1,5.3694557E-2,-6.2455975E-2,-1.080499E0,1.0772897E-1,5.288844E-3,1.1385542E-2,-3.106797E-3,-4.9410876E-2,2.2971937E-3,-7.9614776E-1,9.451598E-3,1.2218169E-2,-8.3459495E-4,-2.9318222E-1,4.2395677E-2,-5.8273447E-1,1.800271E-1,-3.1867366E-2,7.4056305E-2,8.210553E-3,-1.4730637E-2,-2.9809696E-3,-1.0828692E-1,3.2380072E-3,-8.322479E-2,4.091833E-3,-3.6150865E-2,9.254641E-3,-6.509639E-1,3.5746936E-2,-1.831956E-2,1.5136487E-2,-6.5188454E-3,-7.039358E-2,4.8596594E-3],"categories":[],"categories_nodes":[],"categories_segments":[],"categories_sizes":[],"default_left":[0,0,0,0,0,0,0,0,0,0,0,0,0,0,0,0,0,0,0,0,0,0,0,0,0,0,0,0,0,0,0,0,0,0,0,0,0,0,0,0,0,0,0,0,0,0,0,0,0,0,0,0,0,0,0,0,0,0,0,0,0,0,0,0,0,0,0,0,0,0,0,0,0,0,0,0,0,0,0],"id":16,"left_children":[1,3,5,7,9,11,13,15,-1,17,19,21,23,25,27,29,31,33,35,-1,37,-1,39,41,43,-1,-1,-1,45,47,49,-1,-1,51,-1,-1,-1,53,55,-1,-1,57,59,61,-1,63,65,-1,-1,-1,-1,-1,-1,67,-1,-1,-1,69,-1,71,73,-1,75,-1,-1,-1,-1,-1,-1,-1,-1,-1,77,-1,-1,-1,-1,-1,-1],"loss_changes":[4.501753E2,8.973093E1,1.8348921E2,1.7016327E1,8.558302E0,2.5045624E1,1.558429E1,6.0698547E0,0E0,3.1780853E0,4.063141E0,2.6667519E0,3.0777373E0,6.776277E-1,4.643097E0,5.644226E-1,1.8202397E0,3.9470253E0,7.8710294E-1,0E0,2.9980335E0,0E0,5.7928544E-1,3.3290935E0,3.7249713E0,0E0,0E0,0E0,1.2425842E0,1.05285645E-1,8.4583744E-2,0E0,0E0,4.6968246E-1,0E0,0E0,0E0,2.3242607E0,3.5124213E-2,0E0,0E0,3.9071438E0,4.329219E0,7.241439E-1,0E0,2.7395654E-1,4.8275757E-1,0E0,0E0,0E0,0E0,0E0,0E0,1.4184418E0,0E0,0E0,0E0,4.7845352E-1,0E0,1.7935247E0,1.6253737E0,0E0,2.3461244E-1,0E0,0E0,0E0,0E0,0E0,0E0,0E0,0E0,0E0,1.2582817E0,0E0,0E0,0E0,0E0,0E0,0E0],"parents":[2147483647,0,0,1,1,2,2,3,3,4,4,5,5,6,6,7,7,9,9,10,10,11,11,12,12,13,13,14,14,15,15,16,16,17,17,18,18,20,20,22,22,23,23,24,24,28,28,29,29,30,30,33,33,37,37,38,38,41,41,42,42,43,43,45,45,46,46,53,53,57,57,59,59,60,60,62,62,72,72],"right_children":[2,4,6,8,10,12,14,16,-1,18,20,22,24,26,28,30,32,34,36,-1,38,-1,40,42,44,-1,-1,-1,46,48,50,-1,-1,52,-1,-1,-1,54,56,-1,-1,58,60,62,-1,64,66,-1,-1,-1,-1,-1,-1,68,-1,-1,-1,70,-1,72,74,-1,76,-1,-1,-1,-1,-1,-1,-1,-1,-1,78,-1,-1,-1,-1,-1,-1],"split_conditions":[6.595339E-4,9.973716E-1,1.6649155E-3,8.700993E-3,2.6541283E-9,9.976939E-1,1.0085398E-3,9.977692E-1,-3.471866E-2,4.72558E-8,6.273647E-8,1.1662552E-3,6.3873845E-1,2.8147402E-3,1.680347E-3,9.950671E-1,4.4116616E-4,2.2791767E-7,1.7863234E-8,1.9595085E-2,5.2955743E-2,9.4440036E-2,1.1495535E-3,2.8906078E-8,2.8942473E-9,-6.951015E-3,3.6458965E-2,8.757002E-3,4.812317E-5,9.990863E-1,8.362439E-6,2.5462164E-2,-2.892725E-2,7.2948074E-9,3.0486709E-2,5.155912E-2,-3.9753686E-3,9.9816686E-1,4.229568E-2,-1.5936738E-2,1.574165E-2,1.2583172E-7,3.407631E-4,1.3151224E-7,5.3694557E-2,5.0632966E-1,1.3832968E-4,1.0772897E-1,5.288844E-3,1.1385542E-2,-3.106797E-3,-4.9410876E-2,2.2971937E-3,2.9985014E-8,9.451598E-3,1.2218169E-2,-8.3459495E-4,1.7763735E-8,4.2395677E-2,2.5906486E-8,2.0881127E-4,-3.1867366E-2,1.5953059E-6,8.210553E-3,-1.4730637E-2,-2.9809696E-3,-1.0828692E-1,3.2380072E-3,-8.322479E-2,4.091833E-3,-3.6150865E-2,9.254641E-3,4.5411456E-3,3.5746936E-2,-1.831956E-2,1.5136487E-2,-6.5188454E-3,-7.039358E-2,4.8596594E-3],"split_indices":[5,499,336,18,8,0,468,363,0,229,287,347,10,323,265,403,34,399,29,0,125,0,358,488,499,0,0,0,21,421,316,0,0,55,0,0,0,498,102,0,0,308,226,276,0,476,37,0,0,0,0,0,0,99,0,0,0,340,0,353,412,0,201,0,0,0,0,0,0,0,0,0,103,0,0,0,0,0,0],"split_type":[0,0,0,0,0,0,0,0,0,0,0,0,0,0,0,0,0,0,0,0,0,0,0,0,0,0,0,0,0,0,0,0,0,0,0,0,0,0,0,0,0,0,0,0,0,0,0,0,0,0,0,0,0,0,0,0,0,0,0,0,0,0,0,0,0,0,0,0,0,0,0,0,0,0,0,0,0,0,0],"sum_hessian":[7.7628156E2,3.5748126E2,4.1880026E2,3.0775107E2,4.9730198E1,9.590131E1,3.2289896E2,3.032681E2,4.482974E0,1.651558E1,3.321462E1,5.274042E1,4.3160892E1,4.9391227E0,3.179598E2,2.986013E2,4.6667976E0,9.455825E0,7.0597553E0,1.6680084E0,3.1546612E1,4.9649414E1,3.0910065E0,3.258012E1,1.0580771E1,1.1603341E0,3.7787886E0,2.0103421E0,3.1594946E2,2.964492E2,2.1521158E0,2.4296513E0,2.2371466E0,6.1899734E0,3.2658515E0,5.6142006E0,1.4455544E0,2.9445114E1,2.1014972E0,1.5547153E0,1.5362911E0,1.1670631E1,2.0909489E1,5.1042986E0,5.476473E0,2.474206E0,3.1347528E2,2.9528827E2,1.1609168E0,1.1258595E0,1.0262564E0,5.169602E0,1.0203718E0,2.8413961E1,1.0311532E0,1.0382792E0,1.063218E0,4.479223E0,7.1914086E0,1.5851463E1,5.058026E0,2.4761145E0,2.628184E0,1.0347593E0,1.4394468E0,1.0111332E0,3.1246414E2,1.2293701E0,2.7184591E1,1.4415789E0,3.0376441E0,1.1275808E0,1.4723883E1,3.5044308E0,1.5535952E0,1.1302518E0,1.4979323E0,1.3629307E1,1.0945753E0],"tree_param":{"num_deleted":"0","num_feature":"500","num_nodes":"79","size_leaf_vector":"1"}},{"base_weights":[1.4366344E-2,7.6104033E-1,-7.0937026E-1,9.9011976E-1,-1.4309205E-1,3.400464E-1,-1.0443542E0,1.0237193E0,-6.588469E-2,2.1279071E-1,-7.247505E-1,9.06816E-2,-2.3803377E-1,2.1613507E-2,-1.0604451E0,1.0352805E0,3.4970473E-2,3.3700656E-2,-3.9729204E-2,-1.1168777E-1,6.741897E-1,8.173774E-3,-7.77003E-1,-3.58598E-1,3.6582068E-2,-3.3028394E-3,-1.0630544E0,1.0497113E0,9.5344536E-2,-1.6594905E-2,1.9677369E-2,-4.0336043E-1,8.6368255E-2,7.000811E-2,5.5927713E-4,4.229697E-4,-8.072854E-2,-4.5765376E-1,2.8689755E-2,-5.6453245E-3,-1.0660012E-1,1.0539168E0,-4.2125658E-4,2.8287012E-2,-1.8490067E-2,-4.7433075E-1,7.395211E-3,3.9402738E-1,-2.319726E-1,-5.527452E-1,2.7819604E-2,1.0579715E0,2.1317971E-3,-1.355485E-3,-5.0904866E-2,5.124658E-1,-1.1485634E-1,-4.28296E-1,2.0299117E-1,5.0116926E-2,-6.894758E-1,1.0631764E-1,6.386752E-2,5.412298E-2,6.433154E-4,-1.3755572E-2,1.0985582E-3,-4.7536993E-1,3.5998977E-3,3.179357E-2,-1.0313191E-2,-3.180387E-2,3.541951E-1,-7.3773825E-1,6.9335545E-3,1.0384808E-2,-3.4033787E-3,1.2108604E-3,-5.2848507E-2,4.027927E-2,-2.2822928E-3,2.100835E-2,-8.0381405E-1,-1.8106166E-2,2.0870445E-2,-2.6172101E-3,-8.20407E-2],"categories":[],"categories_nodes":[],"categories_segments":[],"categories_sizes":[],"default_left":[0,0,0,0,0,0,0,0,0,0,0,0,0,0,0,0,0,0,0,0,0,0,0,0,0,0,0,0,0,0,0,0,0,0,0,0,0,0,0,0,0,0,0,0,0,0,0,0,0,0,0,0,0,0,0,0,0,0,0,0,0,0,0,0,0,0,0,0,0,0,0,0,0,0,0,0,0,0,0,0,0,0,0,0,0,0,0],"id":17,"left_children":[1,3,5,7,9,11,13,15,17,19,21,-1,23,-1,25,27,29,-1,-1,31,33,-1,35,37,-1,-1,39,41,43,-1,-1,45,47,-1,-1,-1,-1,49,-1,-1,-1,51,-1,-1,-1,53,-1,55,57,59,-1,61,-1,-1,-1,63,65,67,69,71,73,-1,75,-1,-1,-1,-1,77,-1,-1,-1,-1,79,81,-1,-1,-1,-1,-1,-1,-1,83,85,-1,-1,-1,-1],"loss_changes":[4.00262E2,7.690556E1,1.3580742E2,1.1036987E1,1.8602396E1,3.4456528E1,8.126099E0,2.8804321E0,3.7958639E0,9.565395E0,2.0491009E0,0E0,5.4414434E0,0E0,4.1485596E-1,2.7974854E0,7.695815E-1,0E0,0E0,2.8403068E0,4.061594E-1,0E0,8.021679E-1,4.6591415E0,0E0,0E0,2.4255371E-1,1.2623291E0,1.3235865E0,0E0,0E0,1.0014877E0,4.2369685E0,0E0,0E0,0E0,0E0,4.982027E0,0E0,0E0,0E0,9.206238E-1,0E0,0E0,0E0,2.2009182E-1,0E0,1.8518357E0,2.830803E0,4.214657E0,0E0,7.307739E-1,0E0,0E0,0E0,2.3930502E-1,4.975015E-2,5.8730006E-1,8.1796503E-1,3.1415422E0,1.9375191E0,0E0,8.25412E-2,0E0,0E0,0E0,0E0,5.298624E-1,0E0,0E0,0E0,0E0,3.5923028E-1,2.047367E0,0E0,0E0,0E0,0E0,0E0,0E0,0E0,8.613452E-1,2.333126E-1,0E0,0E0,0E0,0E0],"parents":[2147483647,0,0,1,1,2,2,3,3,4,4,5,5,6,6,7,7,8,8,9,9,10,10,12,12,14,14,15,15,16,16,19,19,20,20,22,22,23,23,26,26,27,27,28,28,31,31,32,32,37,37,41,41,45,45,47,47,48,48,49,49,51,51,55,55,56,56,57,57,58,58,59,59,60,60,62,62,67,67,72,72,73,73,81,81,82,82],"right_children":[2,4,6,8,10,12,14,16,18,20,22,-1,24,-1,26,28,30,-1,-1,32,34,-1,36,38,-1,-1,40,42,44,-1,-1,46,48,-1,-1,-1,-1,50,-1,-1,-1,52,-1,-1,-1,54,-1,56,58,60,-1,62,-1,-1,-1,64,66,68,70,72,74,-1,76,-1,-1,-1,-1,78,-1,-1,-1,-1,80,82,-1,-1,-1,-1,-1,-1,-1,84,86,-1,-1,-1,-1],"split_conditions":[5.1232837E-2,7.345696E-1,2.8848905E-2,9.924241E-1,1.3260373E-4,9.973716E-1,6.661602E-3,9.898027E-1,4.2222164E-4,4.664743E-2,1.42571835E-5,9.06816E-2,9.962609E-1,2.1613507E-2,1.0288146E-4,9.9686956E-1,3.0280915E-1,3.3700656E-2,-3.9729204E-2,5.304862E-7,9.1104367E-4,8.173774E-3,6.4910484E-5,1.4959885E-2,3.6582068E-2,-3.3028394E-3,5.5308024E-6,3.056287E-1,1.4849305E-3,-1.6594905E-2,1.9677369E-2,3.4701868E-6,6.1449455E-8,7.000811E-2,5.5927713E-4,4.229697E-4,-8.072854E-2,4.8916563E-3,2.8689755E-2,-5.6453245E-3,-1.0660012E-1,9.984085E-1,-4.2125658E-4,2.8287012E-2,-1.8490067E-2,1.8373794E-10,7.395211E-3,9.903105E-3,4.5758864E-4,3.1548755E-9,2.7819604E-2,9.9718094E-1,2.1317971E-3,-1.355485E-3,-5.0904866E-2,4.9048055E-8,7.910264E-9,5.8667536E-4,9.695549E-6,1.5023208E-8,2.6609324E-2,1.0631764E-1,1.4376596E-1,5.412298E-2,6.433154E-4,-1.3755572E-2,1.0985582E-3,6.8449896E-7,3.5998977E-3,3.179357E-2,-1.0313191E-2,-3.180387E-2,3.6602226E-9,4.5375252E-8,6.9335545E-3,1.0384808E-2,-3.4033787E-3,1.2108604E-3,-5.2848507E-2,4.027927E-2,-2.2822928E-3,1.19763275E-8,1.4303796E-8,-1.8106166E-2,2.0870445E-2,-2.6172101E-3,-8.20407E-2],"split_indices":[488,0,236,362,496,499,105,32,37,44,274,0,498,0,28,189,8,0,0,240,329,0,279,116,0,0,7,498,432,0,0,377,483,0,0,0,0,24,0,0,0,234,0,0,0,493,0,49,170,33,0,14,0,0,0,483,488,344,488,216,285,0,52,0,0,0,0,347,0,0,0,0,47,301,0,0,0,0,0,0,0,88,98,0,0,0,0],"split_type":[0,0,0,0,0,0,0,0,0,0,0,0,0,0,0,0,0,0,0,0,0,0,0,0,0,0,0,0,0,0,0,0,0,0,0,0,0,0,0,0,0,0,0,0,0,0,0,0,0,0,0,0,0,0,0,0,0,0,0,0,0,0,0,0,0,0,0,0,0,0,0,0,0,0,0,0,0,0,0,0,0,0,0,0,0,0,0],"sum_hessian":[7.2069366E2,3.54472E2,3.662217E2,2.8205646E2,7.241551E1,8.857823E1,2.7764346E2,2.7365515E2,8.401312E0,4.8861607E1,2.3553902E1,4.1855244E1,4.6722992E1,1.9325789E0,2.7571088E2,2.700272E2,3.6279702E0,3.7154691E0,4.6858425E0,3.3137238E1,1.5724371E1,1.0898479E0,2.2464054E1,4.2332497E1,4.390495E0,1.0444319E0,2.7466644E2,2.6479388E2,5.2332973E0,1.5040661E0,2.123904E0,9.209151E0,2.3928085E1,1.4684804E1,1.0395677E0,1.1593039E0,2.130475E1,3.9223427E1,3.1090686E0,1.3901156E0,2.7327634E2,2.6374155E2,1.0523279E0,3.0791945E0,2.1541028E0,8.071492E0,1.1376587E0,1.0959142E1,1.2968944E1,3.6938347E1,2.2850804E0,2.624652E2,1.2763515E0,1.5397828E0,6.5317097E0,8.832954E0,2.1261868E0,9.041367E0,3.9275777E0,7.999994E0,2.8938354E1,2.6040695E2,2.058245E0,7.6997337E0,1.1332208E0,1.0126851E0,1.1135018E0,7.9924912E0,1.0488747E0,2.5748744E0,1.3527033E0,3.4110427E0,4.588951E0,2.7468964E1,1.4693892E0,1.0301361E0,1.0281088E0,1.5438359E0,6.4486556E0,3.45939E0,1.1295611E0,2.7469044E0,2.4722061E1,1.4930178E0,1.2538865E0,1.0549273E0,2.3667133E1],"tree_param":{"num_deleted":"0","num_feature":"500","num_nodes":"87","size_leaf_vector":"1"}},{"base_weights":[1.55033525E-2,7.874674E-1,-6.5053767E-1,9.962844E-1,-3.3378854E-1,4.5356348E-1,-1.009099E0,1.0222614E0,-2.4976393E-2,1.4407486E-1,-5.78744E-1,8.537518E-1,-6.692034E-2,2.563311E-1,-1.038956E0,1.0413425E0,-2.4943754E-2,-1.596939E-1,4.6737158E-1,2.1688523E-2,-6.800575E-1,8.941421E-2,-3.922755E-2,-1.6804688E-1,3.3249658E-2,-7.080731E-3,3.3661276E-2,8.4105795E-3,-1.0498974E0,1.044798E0,3.9147036E-3,2.4490593E-2,-2.77192E-2,-3.9438668E-1,2.9037831E-2,4.969031E-2,7.212234E-4,-7.4184346E-1,8.670056E-3,4.016103E-3,-8.295093E-3,5.5588204E-2,-4.3137386E-1,-4.3465942E-2,-1.05718E0,1.0476584E0,5.7219523E-3,-5.362109E-2,1.6871473E-2,-7.9199904E-1,9.253639E-3,-3.6412638E-1,2.7616805E-1,-5.3404415E-1,1.4282443E-2,9.771115E-3,-1.4163548E-2,-4.1516526E-3,-1.05966404E-1,1.049943E0,4.7757523E-3,-3.762424E-3,-8.049089E-2,-4.4081446E-2,6.489458E-3,2.7126506E-2,4.382758E-2,-5.8327484E-1,4.402104E-3,1.0528044E-1,6.213779E-3,2.9138434E-1,-2.792397E-1,1.142536E-3,-6.202006E-2,3.524549E-1,-5.533422E-3,6.5267347E-3,-3.5200156E-2,-1.1620511E-3,3.9513912E-2],"categories":[],"categories_nodes":[],"categories_segments":[],"categories_sizes":[],"default_left":[0,0,0,0,0,0,0,0,0,0,0,0,0,0,0,0,0,0,0,0,0,0,0,0,0,0,0,0,0,0,0,0,0,0,0,0,0,0,0,0,0,0,0,0,0,0,0,0,0,0,0,0,0,0,0,0,0,0,0,0,0,0,0,0,0,0,0,0,0,0,0,0,0,0,0,0,0,0,0,0,0],"id":18,"left_children":[1,3,5,7,9,11,13,15,-1,17,19,21,23,25,27,29,31,33,35,-1,37,-1,39,41,-1,-1,-1,-1,43,45,-1,-1,-1,47,-1,-1,-1,49,-1,-1,-1,51,53,55,57,59,-1,-1,-1,61,-1,63,65,67,-1,-1,-1,-1,-1,69,-1,-1,-1,-1,-1,71,-1,73,-1,-1,-1,75,77,-1,-1,79,-1,-1,-1,-1,-1],"loss_changes":[3.5461963E2,7.809978E1,1.5120708E2,1.1348816E1,7.579605E0,2.0920542E1,1.3343628E1,5.617798E0,0E0,3.4506648E0,4.7067165E0,2.3690033E0,2.6485553E0,6.201382E-1,4.3008423E0,5.0375366E-1,1.6702527E0,3.4321158E0,1.8004322E-1,0E0,2.4425678E0,0E0,7.497175E-2,3.0622523E0,0E0,0E0,0E0,0E0,1.5649414E0,1.4151001E-1,0E0,0E0,0E0,2.379756E0,0E0,0E0,0E0,2.2476425E0,0E0,0E0,0E0,4.2251773E0,2.1276512E0,3.1043026E-1,2.5082397E-1,9.466553E-2,0E0,0E0,0E0,3.9865494E-2,0E0,8.2212925E-1,1.030997E0,8.7575483E-1,0E0,0E0,0E0,0E0,0E0,8.035278E-2,0E0,0E0,0E0,0E0,0E0,2.5858574E0,0E0,5.2642345E-1,0E0,0E0,0E0,5.474994E-1,6.118549E-1,0E0,0E0,2.8694963E-1,0E0,0E0,0E0,0E0,0E0],"parents":[2147483647,0,0,1,1,2,2,3,3,4,4,5,5,6,6,7,7,9,9,10,10,11,11,12,12,13,13,14,14,15,15,16,16,17,17,18,18,20,20,22,22,23,23,28,28,29,29,33,33,37,37,41,41,42,42,43,43,44,44,45,45,49,49,51,51,52,52,53,53,59,59,65,65,67,67,71,71,72,72,75,75],"right_children":[2,4,6,8,10,12,14,16,-1,18,20,22,24,26,28,30,32,34,36,-1,38,-1,40,42,-1,-1,-1,-1,44,46,-1,-1,-1,48,-1,-1,-1,50,-1,-1,-1,52,54,56,58,60,-1,-1,-1,62,-1,64,66,68,-1,-1,-1,-1,-1,70,-1,-1,-1,-1,-1,72,-1,74,-1,-1,-1,76,78,-1,-1,80,-1,-1,-1,-1,-1],"split_conditions":[6.236177E-4,9.973716E-1,1.6649155E-3,8.700993E-3,5.132938E-9,9.976939E-1,1.0085398E-3,9.977692E-1,-2.4976393E-2,2.498978E-7,1.05099836E-7,1.3927281E-3,3.72716E-1,2.8147402E-3,1.680347E-3,9.9688196E-1,4.4116616E-4,1.5477103E-6,2.1422095E-6,2.1688523E-2,1.2041313E-1,8.941421E-2,9.893356E-4,3.4595206E-7,3.3249658E-2,-7.080731E-3,3.3661276E-2,8.4105795E-3,6.267128E-5,9.9806273E-1,3.9147036E-3,2.4490593E-2,-2.77192E-2,2.785036E-7,2.9037831E-2,4.969031E-2,7.212234E-4,9.9816686E-1,8.670056E-3,4.016103E-3,-8.295093E-3,1.0747659E-6,2.135409E-3,4.5619428E-1,1.7607628E-4,9.990863E-1,5.7219523E-3,-5.362109E-2,1.6871473E-2,2.5562087E-5,9.253639E-3,2.985854E-7,3.867578E-6,1.9795313E-3,1.4282443E-2,9.771115E-3,-1.4163548E-2,-4.1516526E-3,-1.05966404E-1,9.977062E-1,4.7757523E-3,-3.762424E-3,-8.049089E-2,-4.4081446E-2,6.489458E-3,2.3003578E-7,4.382758E-2,2.3665892E-7,4.402104E-3,1.0528044E-1,6.213779E-3,2.1028901E-8,2.2827688E-8,